<?xml version="1.0"?>
<opencv_storage>
<cascade>
  <stageType>BOOST</stageType>
  <featureType>LBP</featureType>
  <height>24</height>
  <width>24</width>
  <stageParams>
    <boostType>GAB</boostType>
    <minHitRate>9.9500000476837158e-01</minHitRate>
    <maxFalseAlarm>5.0000000000000000e-01</maxFalseAlarm>
    <weightTrimRate>9.4999999999999996e-01</weightTrimRate>
    <maxDepth>1</maxDepth>
    <maxWeakCount>100</maxWeakCount></stageParams>
  <featureParams>
    <maxCatCount>256</maxCatCount>
    <featSize>1</featSize></featureParams>
  <stageNum>20</stageNum>
  <stages>
    <!-- stage 0 -->
    <_>
      <maxWeakCount>8</maxWeakCount>
      <stageThreshold>-8.6753416061401367e-01</stageThreshold>
      <weakClassifiers>
        <_>
          <internalNodes>
            0 -1 148 -218114337 -150481331 -263129345 270595803
            -51408820 -133236132 552241402 1886581470</internalNodes>
          <leafValues>
            -4.8220065236091614e-01 6.2910896539688110e-01</leafValues></_>
        <_>
          <internalNodes>
            0 -1 22 -709627428 -4230149 1262981020 2138406845 -213982552
            983237800 858309359 1069483967</internalNodes>
          <leafValues>
            -4.0921884775161743e-01 5.5753660202026367e-01</leafValues></_>
        <_>
          <internalNodes>
            0 -1 172 -557426593 -656454249 -25781217 1511190234
            -654549826 -83886881 -126165794 -636330897</internalNodes>
          <leafValues>
            -4.7827386856079102e-01 4.9651688337326050e-01</leafValues></_>
        <_>
          <internalNodes>
            0 -1 117 -402817 -550415357 -670001825 1885530943
            -2010251192 -1726459828 -1207788294 -268241890</internalNodes>
          <leafValues>
            -4.9252292513847351e-01 4.3984848260879517e-01</leafValues></_>
        <_>
          <internalNodes>
            0 -1 39 -603990561 1541672194 1140904954 302038823 -92650292
            -1723725492 -215941670 -1174244673</internalNodes>
          <leafValues>
            -4.3628531694412231e-01 4.8846468329429626e-01</leafValues></_>
        <_>
          <internalNodes>
            0 -1 33 -604504369 -149995949 -2130737140 470079006
            -596121361 1961043791 -1636399009 -28051713</internalNodes>
          <leafValues>
            -3.5367703437805176e-01 6.2249475717544556e-01</leafValues></_>
        <_>
          <internalNodes>
            0 -1 167 -117452709 -65318873 806615963 303292251 -52498327
            -66428632 -1869157633 -1301004757</internalNodes>
          <leafValues>
            -4.7681632637977600e-01 4.4595584273338318e-01</leafValues></_>
        <_>
          <internalNodes>
            0 -1 51 -892606806 -1567989692 -297574304 -1381313114
            -1944599394 1141106361 66543734 -136878665</internalNodes>
          <leafValues>
            -4.7320082783699036e-01 4.0433934330940247e-01</leafValues></_></weakClassifiers></_>
    <!-- stage 1 -->
    <_>
      <maxWeakCount>8</maxWeakCount>
      <stageThreshold>-7.9458832740783691e-01</stageThreshold>
      <weakClassifiers>
        <_>
          <internalNodes>
            0 -1 147 -230171105 -243312371 -1167106433 419517727
            45058222 -1083486655 2854587 538179899</internalNodes>
          <leafValues>
            -3.8124451041221619e-01 5.6187766790390015e-01</leafValues></_>
        <_>
          <internalNodes>
            0 -1 157 -16888705 -645956515 2113656319 2134186334 -389650
            -338470 -18166530 -98406913</internalNodes>
          <leafValues>
            -3.6116871237754822e-01 5.3445613384246826e-01</leafValues></_>
        <_>
          <internalNodes>
            0 -1 173 -83898245 -554705377 -620766241 -804063138
            -1025583089 -2134708 -1728126977 -1174340289</internalNodes>
          <leafValues>
            -4.1648000478744507e-01 4.6416926383972168e-01</leafValues></_>
        <_>
          <internalNodes>
            0 -1 7 -1311378438 -298744 18094865 1000314367 1061521832
            -1415380992 840683167 2132748648</internalNodes>
          <leafValues>
            -4.3538773059844971e-01 4.4933193922042847e-01</leafValues></_>
        <_>
          <internalNodes>
            0 -1 74 -545300897 -8441931 845715711 941929475 -151356210
            -4307234 -1972178962 -94175617</internalNodes>
          <leafValues>
            -3.9861315488815308e-01 4.8542380332946777e-01</leafValues></_>
        <_>
          <internalNodes>
            0 -1 25 -221584662 -67444166 -1544105213 -1302858797
            -1806770966 -614138205 1077998760 -212337086</internalNodes>
          <leafValues>
            -3.8076967000961304e-01 4.9298399686813354e-01</leafValues></_>
        <_>
          <internalNodes>
            0 -1 188 -117715704 362231225 -1609035088 850386615
            -1180830642 -545175033 -924661590 538968063</internalNodes>
          <leafValues>
            -5.5449992418289185e-01 3.3525228500366211e-01</leafValues></_>
        <_>
          <internalNodes>
            0 -1 166 -655730470 -824617963 2034570421 1509983829
            -1157998366 -22131922 -1636786949 -99427269</internalNodes>
          <leafValues>
            -4.9750098586082458e-01 3.7510207295417786e-01</leafValues></_></weakClassifiers></_>
    <!-- stage 2 -->
    <_>
      <maxWeakCount>10</maxWeakCount>
      <stageThreshold>-8.2406783103942871e-01</stageThreshold>
      <weakClassifiers>
        <_>
          <internalNodes>
            0 -1 132 -228602161 -44614333 1344339455 807456575
            -520165368 -1438407920 -2146764050 191103</internalNodes>
          <leafValues>
            -4.9394673109054565e-01 4.7772276401519775e-01</leafValues></_>
        <_>
          <internalNodes>
            0 -1 59 -17867169 2132229651 984677498 973255262 -564245426
            -297116065 -1092565250 -570228865</internalNodes>
          <leafValues>
            -4.0728896856307983e-01 4.3913602828979492e-01</leafValues></_>
        <_>
          <internalNodes>
            0 -1 184 -8705954 1528675615 1895224050 314504750 -805369396
            -641920918 -20971569 -1300496433</internalNodes>
          <leafValues>
            -4.3947270512580872e-01 3.9285105466842651e-01</leafValues></_>
        <_>
          <internalNodes>
            0 -1 78 -39849456 -111869408 345213 -572555123 766097842
            -1413938047 654932222 259991631</internalNodes>
          <leafValues>
            -4.4665849208831787e-01 3.9565715193748474e-01</leafValues></_>
        <_>
          <internalNodes>
            0 -1 129 -274004643 -2795996 -39854083 -143192785
            -1092711208 -276931459 -279126530 -81639681</internalNodes>
          <leafValues>
            -3.6734512448310852e-01 4.6239015460014343e-01</leafValues></_>
        <_>
          <internalNodes>
            0 -1 194 -13639926 1595790119 432744970 865991595 529240586
            1678578561 -320885042 -175114273</internalNodes>
          <leafValues>
            -4.1116225719451904e-01 4.0764245390892029e-01</leafValues></_>
        <_>
          <internalNodes>
            0 -1 66 -1551173709 -1290243150 1811400593 -240414527
            -1364278337 -1433683013 162891263 -843362157</internalNodes>
          <leafValues>
            -3.4808209538459778e-01 5.0434857606887817e-01</leafValues></_>
        <_>
          <internalNodes>
            0 -1 47 -205016141 -410998112 409433011 -106587149 570661818
            -1464287303 84215189 -1041239933</internalNodes>
          <leafValues>
            -3.3296552300453186e-01 4.9714377522468567e-01</leafValues></_>
        <_>
          <internalNodes>
            0 -1 175 -6637001 1595910991 1345712627 805319666
            -1694540219 -10674569 -1157637122 -1156125393</internalNodes>
          <leafValues>
            -3.8788688182830811e-01 4.3620371818542480e-01</leafValues></_>
        <_>
          <internalNodes>
            0 -1 165 -1161344705 500005733 -746975937 -1137670893
            2026650908 2126102928 2056969502 -2013123438</internalNodes>
          <leafValues>
            -5.0429630279541016e-01 3.1857258081436157e-01</leafValues></_></weakClassifiers></_>
    <!-- stage 3 -->
    <_>
      <maxWeakCount>10</maxWeakCount>
      <stageThreshold>-8.7610882520675659e-01</stageThreshold>
      <weakClassifiers>
        <_>
          <internalNodes>
            0 -1 156 -130352238 -80146575 -1372430466 -150910153
            69438123 -2019836113 170240686 117664571</internalNodes>
          <leafValues>
            -2.7770859003067017e-01 5.3018820285797119e-01</leafValues></_>
        <_>
          <internalNodes>
            0 -1 20 -273680461 -829780352 -1041239241 -811208134
            1283842559 213315286 62371729 -840974045</internalNodes>
          <leafValues>
            -3.1819698214530945e-01 4.8578709363937378e-01</leafValues></_>
        <_>
          <internalNodes>
            0 -1 54 -800665906 -201737365 -356226530 977987594
            1980189775 2131035975 -463536161 -12846257</internalNodes>
          <leafValues>
            -3.8061535358428955e-01 4.0196737647056580e-01</leafValues></_>
        <_>
          <internalNodes>
            0 -1 151 -540029266 -640726577 809902242 -203033726
            1430518414 1140967176 1907204746 2003298239</internalNodes>
          <leafValues>
            -4.2351076006889343e-01 3.5558798909187317e-01</leafValues></_>
        <_>
          <internalNodes>
            0 -1 112 -1684014113 1528140253 537121786 553769153
            -929392422 473079874 1913592538 1346095322</internalNodes>
          <leafValues>
            -4.6425586938858032e-01 3.1983599066734314e-01</leafValues></_>
        <_>
          <internalNodes>
            0 -1 79 -2010394381 -1433739088 -1920342593 -976320285
            -404232777 -1937014796 21169589 -842017387</internalNodes>
          <leafValues>
            -3.6281427741050720e-01 4.1340520977973938e-01</leafValues></_>
        <_>
          <internalNodes>
            0 -1 10 -261429337 -1440570750 -515833342 -1606243670
            67238799 -902866929 1343353477 1081336258</internalNodes>
          <leafValues>
            -5.1770609617233276e-01 2.8814098238945007e-01</leafValues></_>
        <_>
          <internalNodes>
            0 -1 58 -67150722 1831157772 -1272951457 856256979
            -863609666 -927825556 -1610306918 -1356661462</internalNodes>
          <leafValues>
            -4.5084044337272644e-01 3.4636044502258301e-01</leafValues></_>
        <_>
          <internalNodes>
            0 -1 182 -151520386 1589772575 307548274 852947150
            -874679796 -883228124 -1595147058 -1436291249</internalNodes>
          <leafValues>
            -4.2154526710510254e-01 3.8459932804107666e-01</leafValues></_>
        <_>
          <internalNodes>
            0 -1 1 -78136356 -141042416 67459526 1532985537 1770709218
            -41876528 942468008 2146111624</internalNodes>
          <leafValues>
            -4.2076537013053894e-01 3.8414305448532104e-01</leafValues></_></weakClassifiers></_>
    <!-- stage 4 -->
    <_>
      <maxWeakCount>11</maxWeakCount>
      <stageThreshold>-9.7154664993286133e-01</stageThreshold>
      <weakClassifiers>
        <_>
          <internalNodes>
            0 -1 159 -58732833 -13185066 -760022950 -800001302
            -355481462 -361802164 -1333789954 1885338335</internalNodes>
          <leafValues>
            -2.9939281940460205e-01 4.9116769433021545e-01</leafValues></_>
        <_>
          <internalNodes>
            0 -1 33 -2626865 -755768165 -1974337528 2022165135
            1398140495 1410478151 1682410078 1886907983</internalNodes>
          <leafValues>
            -3.7835595011711121e-01 4.1247984766960144e-01</leafValues></_>
        <_>
          <internalNodes>
            0 -1 45 -1441806669 33726466 1272528881 -9451582 59743679
            175108266 287166657 -570436379</internalNodes>
          <leafValues>
            -3.7160092592239380e-01 3.8300916552543640e-01</leafValues></_>
        <_>
          <internalNodes>
            0 -1 145 -126362913 -1178618499 -339819537 -552609009
            -925431604 -1879107336 -1205186374 -1155282693</internalNodes>
          <leafValues>
            -2.9407930374145508e-01 4.8795831203460693e-01</leafValues></_>
        <_>
          <internalNodes>
            0 -1 150 -234888282 1427595207 565215232 1974576712
            1377825514 1380557646 -2093763925 2010628943</internalNodes>
          <leafValues>
            -4.2131054401397705e-01 3.3522737026214600e-01</leafValues></_>
        <_>
          <internalNodes>
            0 -1 119 -749767676 1178602152 117662679 857074591
            1764487584 1568637184 -1129381958 992981855</internalNodes>
          <leafValues>
            -4.7667920589447021e-01 3.1628388166427612e-01</leafValues></_>
        <_>
          <internalNodes>
            0 -1 49 -340855870 -1563776446 1654748785 -680049919
            614656994 -1887268751 1097023687 -672705561</internalNodes>
          <leafValues>
            -4.0932086110115051e-01 3.5749536752700806e-01</leafValues></_>
        <_>
          <internalNodes>
            0 -1 64 -273710093 1116137530 -1099958529 -1681673986
            -546836577 1225775002 1466406805 -574107179</internalNodes>
          <leafValues>
            -3.5013410449028015e-01 4.1748446226119995e-01</leafValues></_>
        <_>
          <internalNodes>
            0 -1 111 -549744865 -544002779 -26232843 -1120285157
            -425277328 -554240674 -1348404482 -96796930</internalNodes>
          <leafValues>
            -3.1559398770332336e-01 4.7237548232078552e-01</leafValues></_>
        <_>
          <internalNodes>
            0 -1 39 -20489 2004307327 -29982742 1057127911 -16851718
            -549693314 -1097666818 -1411189761</internalNodes>
          <leafValues>
            -3.3053591847419739e-01 4.4848337769508362e-01</leafValues></_>
        <_>
          <internalNodes>
            0 -1 124 -113120126 -245959866 805675008 2074546591
            -1513524771 16842946 -49564909 1192753495</internalNodes>
          <leafValues>
            -4.3297359347343445e-01 3.6840999126434326e-01</leafValues></_></weakClassifiers></_>
    <!-- stage 5 -->
    <_>
      <maxWeakCount>12</maxWeakCount>
      <stageThreshold>-8.6499595642089844e-01</stageThreshold>
      <weakClassifiers>
        <_>
          <internalNodes>
            0 -1 167 -83928973 2146772281 314159163 839022955 -691400580
            -8582807 -1596391685 572548471</internalNodes>
          <leafValues>
            -4.6274778246879578e-01 4.3220171332359314e-01</leafValues></_>
        <_>
          <internalNodes>
            0 -1 37 -18878737 -630196377 -2097683714 1357903591
            2004315919 1949464119 -940310961 -730595729</internalNodes>
          <leafValues>
            -3.5174736380577087e-01 4.3247336149215698e-01</leafValues></_>
        <_>
          <internalNodes>
            0 -1 146 -562340483 -38052075 -2133537 2067115901 -228569348
            -33596033 -78587393 -365265537</internalNodes>
          <leafValues>
            -3.4021452069282532e-01 4.3913498520851135e-01</leafValues></_>
        <_>
          <internalNodes>
            0 -1 197 -506466325 1966406655 1935994814 573091511
            -413596914 1430769419 2071985999 -363860209</internalNodes>
          <leafValues>
            -2.9439169168472290e-01 5.0676697492599487e-01</leafValues></_>
        <_>
          <internalNodes>
            0 -1 65 -1413486925 -1941256462 -988728457 126284026
            -1952466981 -821042453 1474949253 -1913663099</internalNodes>
          <leafValues>
            -3.9582958817481995e-01 3.4184041619300842e-01</leafValues></_>
        <_>
          <internalNodes>
            0 -1 13 -2625561 29618079 840678050 -2140100370 -343932929
            1340078071 -939556873 -168296473</internalNodes>
          <leafValues>
            -3.3332744240760803e-01 4.1369405388832092e-01</leafValues></_>
        <_>
          <internalNodes>
            0 -1 74 -270575521 1397974628 -2067226990 114580820
            -50574262 -553660338 -428818626 -96298145</internalNodes>
          <leafValues>
            -4.0451341867446899e-01 3.4153282642364502e-01</leafValues></_>
        <_>
          <internalNodes>
            0 -1 193 -536871090 1411226395 840505394 852523610
            1580136968 1347710575 -1587285204 599916374</internalNodes>
          <leafValues>
            -5.1428246498107910e-01 2.9271161556243896e-01</leafValues></_>
        <_>
          <internalNodes>
            0 -1 16 -536871449 -2007499201 -822696386 -655360059
            -713689823 179697511 -8943883 -463995657</internalNodes>
          <leafValues>
            -3.6592301726341248e-01 4.0445619821548462e-01</leafValues></_>
        <_>
          <internalNodes>
            0 -1 94 -343233885 -1343553882 2106817909 -537653664
            263525629 -361301609 1297431943 -640715515</internalNodes>
          <leafValues>
            -3.5389339923858643e-01 3.9419627189636230e-01</leafValues></_>
        <_>
          <internalNodes>
            0 -1 168 -14548224 1157744384 293677844 889262901 -868548048
            -1614388688 306905379 1005308399</internalNodes>
          <leafValues>
            -4.6395206451416016e-01 3.1642213463783264e-01</leafValues></_>
        <_>
          <internalNodes>
            0 -1 164 -609311070 1269296715 -748804414 -208552786
            -783558145 1158261835 -1880186135 2001731499</internalNodes>
          <leafValues>
            -4.2878115177154541e-01 3.1460633873939514e-01</leafValues></_></weakClassifiers></_>
    <!-- stage 6 -->
    <_>
      <maxWeakCount>12</maxWeakCount>
      <stageThreshold>-8.0818307399749756e-01</stageThreshold>
      <weakClassifiers>
        <_>
          <internalNodes>
            0 -1 158 -50443171 -49857 -130121729 1543839613 -1393934530
            -268468356 -1397170434 -1440711554</internalNodes>
          <leafValues>
            -2.3203285038471222e-01 5.0799506902694702e-01</leafValues></_>
        <_>
          <internalNodes>
            0 -1 106 -59247139 -35652401 -98586225 -13910773 -1058286081
            -33563271 -180619845 -83626965</internalNodes>
          <leafValues>
            -2.0770762860774994e-01 5.9268045425415039e-01</leafValues></_>
        <_>
          <internalNodes>
            0 -1 42 -33057 1565490440 1115356415 -1740603393 -21115186
            -95715987 -857743618 -869073121</internalNodes>
          <leafValues>
            -2.9311627149581909e-01 4.3943533301353455e-01</leafValues></_>
        <_>
          <internalNodes>
            0 -1 84 -27305857 -537256363 1591795447 2132958751
            1173116154 -345794 -288161794 -14483669</internalNodes>
          <leafValues>
            -2.9948097467422485e-01 4.4588109850883484e-01</leafValues></_>
        <_>
          <internalNodes>
            0 -1 190 -2363441 1964072277 -705042695 1930629007
            -1464985078 -11744562 199066188 -1159865638</internalNodes>
          <leafValues>
            -2.9915478825569153e-01 4.5906457304954529e-01</leafValues></_>
        <_>
          <internalNodes>
            0 -1 46 -284246093 -1180984416 -826329647 -67522509
            -275788337 -1347699911 260523229 1303368913</internalNodes>
          <leafValues>
            -3.4466892480850220e-01 4.0034386515617371e-01</leafValues></_>
        <_>
          <internalNodes>
            0 -1 32 -68433937 -216825966 -117980160 -218657550
            -137367601 -1552587466 1408083662 -218635609</internalNodes>
          <leafValues>
            -2.5824186205863953e-01 4.5892024040222168e-01</leafValues></_>
        <_>
          <internalNodes>
            0 -1 61 -77636007 2052941321 341868287 538508975 -50413318
            -324604 -2031436132 -623444129</internalNodes>
          <leafValues>
            -3.3999282121658325e-01 3.7198266386985779e-01</leafValues></_>
        <_>
          <internalNodes>
            0 -1 99 -1447762382 929694838 -1793982465 -1210311422
            -1882785035 -677070515 213996861 -1623093968</internalNodes>
          <leafValues>
            -3.4811958670616150e-01 3.7876722216606140e-01</leafValues></_>
        <_>
          <internalNodes>
            0 -1 77 -423100559 -856031691 242176981 1836056021
            -1389369633 -1929925787 -1385732652 -918845707</internalNodes>
          <leafValues>
            -3.0594998598098755e-01 4.2770978808403015e-01</leafValues></_>
        <_>
          <internalNodes>
            0 -1 131 -1486999691 -8845455 -1091049733 -1104584901
            -927035448 -1073807367 -1676383844 -1155369173</internalNodes>
          <leafValues>
            -3.3535760641098022e-01 3.9321067929267883e-01</leafValues></_>
        <_>
          <internalNodes>
            0 -1 185 1899144194 2012678156 -608821313 1931298911
            539199230 -314842871 586195182 712100543</internalNodes>
          <leafValues>
            -4.5111489295959473e-01 2.8860083222389221e-01</leafValues></_></weakClassifiers></_>
    <!-- stage 7 -->
    <_>
      <maxWeakCount>14</maxWeakCount>
      <stageThreshold>-7.4729514122009277e-01</stageThreshold>
      <weakClassifiers>
        <_>
          <internalNodes>
            0 -1 57 -118498578 2012677043 -128311057 852694565
            1867630415 -12095929 -153098017 -78120117</internalNodes>
          <leafValues>
            -9.6774190664291382e-02 5.8538931608200073e-01</leafValues></_>
        <_>
          <internalNodes>
            0 -1 172 -555789105 1607950447 -597553057 -630000962
            -17654530 -2252388 -1294322450 -97461125</internalNodes>
          <leafValues>
            -3.7713867425918579e-01 3.3253270387649536e-01</leafValues></_>
        <_>
          <internalNodes>
            0 -1 68 -492636237 -1892765918 1273491927 -537880
            -1953520645 -1894980050 1174237655 -808454923</internalNodes>
          <leafValues>
            -3.1253275275230408e-01 4.0562748908996582e-01</leafValues></_>
        <_>
          <internalNodes>
            0 -1 134 -748099654 -184487024 -788448992 -82840192
            135279000 -1089436904 369113656 -82400</internalNodes>
          <leafValues>
            -3.6793527007102966e-01 3.3042484521865845e-01</leafValues></_>
        <_>
          <internalNodes>
            0 -1 116 -6617987 -545436612 -1082723969 -570874055
            -1143024388 -88344577 -293818952 -1089308801</internalNodes>
          <leafValues>
            -3.3214351534843445e-01 3.6768823862075806e-01</leafValues></_>
        <_>
          <internalNodes>
            0 -1 195 -960499962 1461040075 151192064 562668613
            -1812206837 1916985617 -554368869 -975437841</internalNodes>
          <leafValues>
            -3.6404621601104736e-01 3.5863444209098816e-01</leafValues></_>
        <_>
          <internalNodes>
            0 -1 60 -134288898 2001995048 -226498721 524109357
            -924921122 -1204908009 -2000621058 -1138558082</internalNodes>
          <leafValues>
            -3.6859416961669922e-01 3.4970304369926453e-01</leafValues></_>
        <_>
          <internalNodes>
            0 -1 38 -109846190 1459770210 34132273 826577759 -1743234036
            1511653776 -1567688502 134368859</internalNodes>
          <leafValues>
            -4.7618308663368225e-01 2.7624812722206116e-01</leafValues></_>
        <_>
          <internalNodes>
            0 -1 5 -763887673 1656036577 1983377403 1272577263
            -680812203 165217733 -1312779 -974659593</internalNodes>
          <leafValues>
            -2.9893684387207031e-01 4.3496364355087280e-01</leafValues></_>
        <_>
          <internalNodes>
            0 -1 73 2146887807 -7045345 1550939967 1066678230 1290962168
            -89647948 -797798402 -615363717</internalNodes>
          <leafValues>
            -3.1579542160034180e-01 4.1836783289909363e-01</leafValues></_>
        <_>
          <internalNodes>
            0 -1 50 -3226930 -415202868 -1022263227 -171196384 8302779
            193252008 1087066964 1926702737</internalNodes>
          <leafValues>
            -4.0864586830139160e-01 3.2715314626693726e-01</leafValues></_>
        <_>
          <internalNodes>
            0 -1 153 -179255120 -145443496 488870041 -112774959
            -83100493 -1693130359 -1550368294 521871384</internalNodes>
          <leafValues>
            -4.2494562268257141e-01 2.9575079679489136e-01</leafValues></_>
        <_>
          <internalNodes>
            0 -1 176 1392705954 1540687879 1362748225 2100353663
            1359986840 -544454385 -797931365 941686783</internalNodes>
          <leafValues>
            -4.6939128637313843e-01 2.6152971386909485e-01</leafValues></_>
        <_>
          <internalNodes>
            0 -1 169 -1868724 526190877 272847323 268716495 -355768251
            -1149419431 -91454005 -1300763779</internalNodes>
          <leafValues>
            -4.1845032572746277e-01 3.0078765749931335e-01</leafValues></_></weakClassifiers></_>
    <!-- stage 8 -->
    <_>
      <maxWeakCount>15</maxWeakCount>
      <stageThreshold>-7.8822267055511475e-01</stageThreshold>
      <weakClassifiers>
        <_>
          <internalNodes>
            0 -1 113 2066995028 387776576 638410623 566176887
            -1322845284 -4390844 135200495 994959261</internalNodes>
          <leafValues>
            -2.3236890137195587e-01 4.6968284249305725e-01</leafValues></_>
        <_>
          <internalNodes>
            0 -1 63 -1977896045 -1750420848 -1091309611 -139210544
            -1908675589 -358353202 119920331 -845294119</internalNodes>
          <leafValues>
            -2.8613957762718201e-01 3.9821889996528625e-01</leafValues></_>
        <_>
          <internalNodes>
            0 -1 62 -25854210 2081898863 538105598 270584863 -277385650
            -3417759 -1019031842 -226623697</internalNodes>
          <leafValues>
            -3.6010435223579407e-01 3.2554227113723755e-01</leafValues></_>
        <_>
          <internalNodes>
            0 -1 35 -203691281 1474002047 954137854 811438751 1582554830
            2121430879 -364478822 -25436449</internalNodes>
          <leafValues>
            -2.6412990689277649e-01 4.4042760133743286e-01</leafValues></_>
        <_>
          <internalNodes>
            0 -1 144 -2568461 -2466881 -1253615169 2140177110
            -1106093892 -578240086 -68530774 975308139</internalNodes>
          <leafValues>
            -3.9450612664222717e-01 2.8807139396667480e-01</leafValues></_>
        <_>
          <internalNodes>
            0 -1 86 -905795354 -968883817 -218042401 -40144489
            -1979415317 -823162725 1799455616 -813367039</internalNodes>
          <leafValues>
            -3.4429743885993958e-01 3.3414193987846375e-01</leafValues></_>
        <_>
          <internalNodes>
            0 -1 108 -235014486 1355666950 -753398302 -782637334
            428718989 23931370 1399572203 1433373327</internalNodes>
          <leafValues>
            -3.7643238902091980e-01 3.0261203646659851e-01</leafValues></_>
        <_>
          <internalNodes>
            0 -1 166 -1874651121 -807566242 1428123871 -14063325
            -1132326726 -2378335 -364327720 -630043485</internalNodes>
          <leafValues>
            -3.4032100439071655e-01 3.3404001593589783e-01</leafValues></_>
        <_>
          <internalNodes>
            0 -1 22 462787988 1603796781 537918916 895482846 181052748
            948765606 839560067 1543503775</internalNodes>
          <leafValues>
            -3.9564439654350281e-01 2.8972950577735901e-01</leafValues></_>
        <_>
          <internalNodes>
            0 -1 161 -165694789 -565841089 281475513 811251738
            -863635226 -603048931 11387113 -1602356497</internalNodes>
          <leafValues>
            -4.0323787927627563e-01 2.9337611794471741e-01</leafValues></_>
        <_>
          <internalNodes>
            0 -1 3 1441916750 2072505898 1249985154 287976098 -984246302
            1466498730 -1266044471 -41567509</internalNodes>
          <leafValues>
            -3.2331290841102600e-01 3.6975660920143127e-01</leafValues></_>
        <_>
          <internalNodes>
            0 -1 171 -203955313 -2626737 1624846285 -1142976577
            -573943348 -478201504 -205264440 -45609</internalNodes>
          <leafValues>
            -2.2367195785045624e-01 5.4945296049118042e-01</leafValues></_>
        <_>
          <internalNodes>
            0 -1 191 -33555873 486319459 -2083597616 316586694
            -469408818 486087822 -1604846890 1649398486</internalNodes>
          <leafValues>
            -3.7182587385177612e-01 3.3676952123641968e-01</leafValues></_>
        <_>
          <internalNodes>
            0 -1 88 -12888705 -100942474 -1883635969 -250396933
            1800937466 -69533827 -630531137 -97337637</internalNodes>
          <leafValues>
            -2.4059933423995972e-01 5.3357309103012085e-01</leafValues></_>
        <_>
          <internalNodes>
            0 -1 55 -579937670 -92666544 -1944919653 564681047
            -800263972 943528268 -224141569 -6661509</internalNodes>
          <leafValues>
            -3.5621270537376404e-01 3.4383031725883484e-01</leafValues></_></weakClassifiers></_>
    <!-- stage 9 -->
    <_>
      <maxWeakCount>14</maxWeakCount>
      <stageThreshold>-8.4274375438690186e-01</stageThreshold>
      <weakClassifiers>
        <_>
          <internalNodes>
            0 -1 11 -974134389 197586923 -1396136413 539140642
            1146472199 1877037051 1103189505 7405358</internalNodes>
          <leafValues>
            -3.0280479788780212e-01 4.2688828706741333e-01</leafValues></_>
        <_>
          <internalNodes>
            0 -1 179 -899704312 -125150215 -272576225 -1417647146
            722465628 -339978918 581093338 991592414</internalNodes>
          <leafValues>
            -4.8479214310646057e-01 2.4310401082038879e-01</leafValues></_>
        <_>
          <internalNodes>
            0 -1 48 -1364267390 1242466318 1981777203 -1150692936
            34161918 170908595 1406617012 -805840905</internalNodes>
          <leafValues>
            -3.6463025212287903e-01 3.2771348953247070e-01</leafValues></_>
        <_>
          <internalNodes>
            0 -1 170 -1073487157 -33559733 1983246265 318972867
            1355616268 -302014595 1078843072 -1085937981</internalNodes>
          <leafValues>
            -3.2872426509857178e-01 3.6318257451057434e-01</leafValues></_>
        <_>
          <internalNodes>
            0 -1 189 1092034321 427932551 -1544306799 -1483083887
            -177353592 56688524 -268444280 -1081047815</internalNodes>
          <leafValues>
            -2.9312813282012939e-01 3.9761522412300110e-01</leafValues></_>
        <_>
          <internalNodes>
            0 -1 160 -209772715 433522541 -1877217283 550969723
            -1464038127 -99346850 986512318 2111342</internalNodes>
          <leafValues>
            -5.3875368833541870e-01 2.0596580207347870e-01</leafValues></_>
        <_>
          <internalNodes>
            0 -1 17 -46138369 -47048863 -1078919238 -2111783575 -8519188
            -1690030812 -290791432 -1158220817</internalNodes>
          <leafValues>
            -3.2848086953163147e-01 3.8180050253868103e-01</leafValues></_>
        <_>
          <internalNodes>
            0 -1 34 1357898503 1473619799 8971300 16487106 130775139
            2078221123 -792476146 -254344121</internalNodes>
          <leafValues>
            -4.0600579977035522e-01 2.8119006752967834e-01</leafValues></_>
        <_>
          <internalNodes>
            0 -1 76 -17170757 1557658717 4110013 849641078 -806469046
            -85569682 1733418335 -181141649</internalNodes>
          <leafValues>
            -3.1303709745407104e-01 3.7711632251739502e-01</leafValues></_>
        <_>
          <internalNodes>
            0 -1 80 -416548881 -402521566 2009069497 2146920438
            -958550035 1338552198 -815313018 -3733285</internalNodes>
          <leafValues>
            -2.5603398680686951e-01 4.5813563466072083e-01</leafValues></_>
        <_>
          <internalNodes>
            0 -1 24 -738335269 -644420342 -1755849251 1900139945
            -1294040360 -1065890146 1422349468 -605580373</internalNodes>
          <leafValues>
            -2.5193622708320618e-01 4.9656781554222107e-01</leafValues></_>
        <_>
          <internalNodes>
            0 -1 142 -428827376 -673935140 -565516418 -4147219
            -684802735 -1141369414 -268940578 -131053360</internalNodes>
          <leafValues>
            -3.9996445178985596e-01 3.0715450644493103e-01</leafValues></_>
        <_>
          <internalNodes>
            0 -1 56 278964364 1775093853 -721271110 -1814706409
            -2088075011 -1047260999 -1962442241 1666256915</internalNodes>
          <leafValues>
            -3.9931288361549377e-01 2.9852160811424255e-01</leafValues></_>
        <_>
          <internalNodes>
            0 -1 139 -118259400 1032821642 320012416 1975097472
            1490277793 488207271 1344750052 939521451</internalNodes>
          <leafValues>
            -4.1563287377357483e-01 2.8748333454132080e-01</leafValues></_></weakClassifiers></_>
    <!-- stage 10 -->
    <_>
      <maxWeakCount>10</maxWeakCount>
      <stageThreshold>-7.6661890745162964e-01</stageThreshold>
      <weakClassifiers>
        <_>
          <internalNodes>
            0 -1 181 2013348226 -651296109 936648650 864033465
            -1886792496 -1619066916 791726572 721575900</internalNodes>
          <leafValues>
            -3.4715026617050171e-01 5.3323185443878174e-01</leafValues></_>
        <_>
          <internalNodes>
            0 -1 104 -1460085289 -1141613447 2147475061 -537254247
            -1627908881 -1720011013 533203864 -1115680744</internalNodes>
          <leafValues>
            -2.7639380097389221e-01 5.6558036804199219e-01</leafValues></_>
        <_>
          <internalNodes>
            0 -1 136 -108794944 -49479424 -1672994808 1909938622
            327401614 1140933632 1342866154 114028586</internalNodes>
          <leafValues>
            -4.6269169449806213e-01 3.8345909118652344e-01</leafValues></_>
        <_>
          <internalNodes>
            0 -1 36 -223022086 -1784607597 -787475817 -7647079 973797786
            -1698594765 -1333421365 1095029124</internalNodes>
          <leafValues>
            -4.3237721920013428e-01 4.1031286120414734e-01</leafValues></_>
        <_>
          <internalNodes>
            0 -1 143 526775279 1244775992 -1129103506 1865537176
            -499778544 -44111500 -1074962580 -811205736</internalNodes>
          <leafValues>
            -3.8567689061164856e-01 4.6905797719955444e-01</leafValues></_>
        <_>
          <internalNodes>
            0 -1 98 212105587 -1246484711 251521909 -1490310032
            1304623099 -1954590921 -1653160995 -1968790772</internalNodes>
          <leafValues>
            -3.5088935494422913e-01 5.1503872871398926e-01</leafValues></_>
        <_>
          <internalNodes>
            0 -1 130 -86411009 -1084110210 -1099235362 2063646519
            2088704732 -832774314 -253765414 -75794178</internalNodes>
          <leafValues>
            -3.2417723536491394e-01 5.7086485624313354e-01</leafValues></_>
        <_>
          <internalNodes>
            0 -1 21 -720183346 -775400431 201363660 2056419506 3155084
            -2013222488 143269034 1860633403</internalNodes>
          <leafValues>
            -4.9972432851791382e-01 3.8783338665962219e-01</leafValues></_>
        <_>
          <internalNodes>
            0 -1 53 -299334962 -41352959 402688067 -1710587903 26829354
            671154242 -310277249 1933801503</internalNodes>
          <leafValues>
            -5.4258799552917480e-01 3.5093548893928528e-01</leafValues></_>
        <_>
          <internalNodes>
            0 -1 27 -775097602 30806418 419639364 1967706187 -653474874
            16909754 1493307914 454035018</internalNodes>
          <leafValues>
            -6.6232770681381226e-01 2.9000347852706909e-01</leafValues></_></weakClassifiers></_>
    <!-- stage 11 -->
    <_>
      <maxWeakCount>11</maxWeakCount>
      <stageThreshold>-3.8735198974609375e-01</stageThreshold>
      <weakClassifiers>
        <_>
          <internalNodes>
            0 -1 128 -1172122075 -726714868 -1106432004 -1219990269
            4128984 -169915304 -398849478 402692122</internalNodes>
          <leafValues>
            -3.3217993378639221e-01 5.2839756011962891e-01</leafValues></_>
        <_>
          <internalNodes>
            0 -1 82 -1548291149 -2003917084 985628647 -136006480
            -941625415 -2051477825 75061197 -909130363</internalNodes>
          <leafValues>
            -3.1449082493782043e-01 4.6195882558822632e-01</leafValues></_>
        <_>
          <internalNodes>
            0 -1 8 -1808797251 1224068144 -18877542 -1710555540
            -1126173009 -453517314 -1929382442 -1061178958</internalNodes>
          <leafValues>
            -3.7295666337013245e-01 4.5640408992767334e-01</leafValues></_>
        <_>
          <internalNodes>
            0 -1 174 -134224262 1607321992 2053260 -314221603 -494198520
            -492367740 2128053088 1431669688</internalNodes>
          <leafValues>
            -4.2712035775184631e-01 3.9579468965530396e-01</leafValues></_>
        <_>
          <internalNodes>
            0 -1 107 -1541901612 655364555 134271278 -1701292351
            -846395144 298008591 950319325 201288899</internalNodes>
          <leafValues>
            -5.4403597116470337e-01 3.0592685937881470e-01</leafValues></_>
        <_>
          <internalNodes>
            0 -1 180 1205289990 1620283671 47239316 -252155818 847776398
            180956687 -1340450470 -96318706</internalNodes>
          <leafValues>
            -5.4431599378585815e-01 3.3635482192039490e-01</leafValues></_>
        <_>
          <internalNodes>
            0 -1 95 -1025565483 1366274165 -572904949 290461361
            -269500417 -545956559 -274208856 -298622968</internalNodes>
          <leafValues>
            -3.2671156525611877e-01 5.5824941396713257e-01</leafValues></_>
        <_>
          <internalNodes>
            0 -1 137 1516188346 -1730711268 1627922594 -451947007
            751157423 5996976 -2062550389 2069354750</internalNodes>
          <leafValues>
            -4.0761148929595947e-01 4.4167897105216980e-01</leafValues></_>
        <_>
          <internalNodes>
            0 -1 4 1085688025 -148309249 334331541 -653963564 -60651922
            -288692003 -2021898405 -1517252928</internalNodes>
          <leafValues>
            -3.6906343698501587e-01 5.0487154722213745e-01</leafValues></_>
        <_>
          <internalNodes>
            0 -1 151 1464331143 -250657748 289901320 -745205492
            1971965611 654477440 -262593688 1933962762</internalNodes>
          <leafValues>
            -4.5010077953338623e-01 4.1433125734329224e-01</leafValues></_>
        <_>
          <internalNodes>
            0 -1 110 47979167 966050206 -2129633589 -1215846102
            1276643486 -242958080 -1700771016 475005324</internalNodes>
          <leafValues>
            -4.6181493997573853e-01 4.1622707247734070e-01</leafValues></_></weakClassifiers></_>
    <!-- stage 12 -->
    <_>
      <maxWeakCount>11</maxWeakCount>
      <stageThreshold>-3.9845481514930725e-01</stageThreshold>
      <weakClassifiers>
        <_>
          <internalNodes>
            0 -1 117 -163853733 -10193103 -1103953929 771948414
            -1493253812 -1669571500 -1292725030 671284346</internalNodes>
          <leafValues>
            -2.7299702167510986e-01 5.5117273330688477e-01</leafValues></_>
        <_>
          <internalNodes>
            0 -1 114 1308426239 -1912587828 1001190536 -1611920552
            -569271361 -602876180 387977704 -1098349204</internalNodes>
          <leafValues>
            -3.1942418217658997e-01 4.5653444528579712e-01</leafValues></_>
        <_>
          <internalNodes>
            0 -1 90 -245423241 1940064991 1003925436 2077695999
            939355631 2013249500 -1644857605 -1885839212</internalNodes>
          <leafValues>
            -3.1881669163703918e-01 4.9868917465209961e-01</leafValues></_>
        <_>
          <internalNodes>
            0 -1 163 -301422598 -54312953 2138248 563576840 957137324
            1099829376 -1530280308 1744816874</internalNodes>
          <leafValues>
            -4.7968590259552002e-01 3.4256920218467712e-01</leafValues></_>
        <_>
          <internalNodes>
            0 -1 126 -1855405944 -640089304 25166803 -41676521 159482319
            -74235645 570688047 997261470</internalNodes>
          <leafValues>
            -4.7839283943176270e-01 3.2815024256706238e-01</leafValues></_>
        <_>
          <internalNodes>
            0 -1 141 -718752548 -586638312 294654179 -1888210428
            235528582 -14942134 1649322072 959982240</internalNodes>
          <leafValues>
            -4.9296304583549500e-01 3.3212932944297791e-01</leafValues></_>
        <_>
          <internalNodes>
            0 -1 2 -95242327 -1165899553 -922697290 -1261813726
            -867229409 -234650973 -1073374619 -535393503</internalNodes>
          <leafValues>
            -4.3114435672760010e-01 4.1890114545822144e-01</leafValues></_>
        <_>
          <internalNodes>
            0 -1 23 1041078001 749719278 -355065997 -917513284
            -1646266785 -1008959754 -1531992333 -506555279</internalNodes>
          <leafValues>
            -3.9886030554771423e-01 4.4395405054092407e-01</leafValues></_>
        <_>
          <internalNodes>
            0 -1 52 -236462105 2060174524 1541316184 -1228161302
            -817246981 -821838052 2037874879 1448857819</internalNodes>
          <leafValues>
            -3.3424139022827148e-01 5.3671884536743164e-01</leafValues></_>
        <_>
          <internalNodes>
            0 -1 178 -802188736 2010452221 -784219755 -1109589934
            1610728365 1564819585 1115915435 827845558</internalNodes>
          <leafValues>
            -4.4720605015754700e-01 4.0667772293090820e-01</leafValues></_>
        <_>
          <internalNodes>
            0 -1 155 978252635 -978972406 -788299297 -1627349735
            -595588710 1470841231 -117440244 136851394</internalNodes>
          <leafValues>
            -4.8970472812652588e-01 3.8736468553543091e-01</leafValues></_></weakClassifiers></_>
    <!-- stage 13 -->
    <_>
      <maxWeakCount>11</maxWeakCount>
      <stageThreshold>-3.9071893692016602e-01</stageThreshold>
      <weakClassifiers>
        <_>
          <internalNodes>
            0 -1 0 -1753891138 -19617684 -1566785618 399027426
            -143343618 2003844524 -708461451 139508940</internalNodes>
          <leafValues>
            -2.5227963924407959e-01 5.3699791431427002e-01</leafValues></_>
        <_>
          <internalNodes>
            0 -1 198 -471339029 1999237006 657964654 -1599279114
            1870646019 1111555855 -8464689 -177512481</internalNodes>
          <leafValues>
            -3.1605190038681030e-01 4.4594407081604004e-01</leafValues></_>
        <_>
          <internalNodes>
            0 -1 72 -616996906 -581738913 -299869638 -1238880429
            -1074377714 -300392585 -727266102 -61342177</internalNodes>
          <leafValues>
            -3.4587991237640381e-01 4.3079856038093567e-01</leafValues></_>
        <_>
          <internalNodes>
            0 -1 125 915078398 -281345399 -719400771 -1618149297
            25171353 2076345528 -1413051445 -350070696</internalNodes>
          <leafValues>
            -3.9761853218078613e-01 4.0225186944007874e-01</leafValues></_>
        <_>
          <internalNodes>
            0 -1 100 -113282546 2022429126 -1995340800 857073743
            -242190161 1342824459 151436170 -1533043826</internalNodes>
          <leafValues>
            -4.0779033303260803e-01 4.0536814928054810e-01</leafValues></_>
        <_>
          <internalNodes>
            0 -1 81 -1935917096 -880125974 -783449911 -909470452
            306579146 -762670974 974933678 730490511</internalNodes>
          <leafValues>
            -4.8970168828964233e-01 3.4343099594116211e-01</leafValues></_>
        <_>
          <internalNodes>
            0 -1 75 1387235027 1473723849 -323159313 269515775
            -956375342 -18912010 -290927729 -2001150149</internalNodes>
          <leafValues>
            -3.9478716254234314e-01 4.3482488393783569e-01</leafValues></_>
        <_>
          <internalNodes>
            0 -1 101 1023711168 -1724252194 -303079427 -120641361
            -394207236 -1075683462 -2059213063 778273234</internalNodes>
          <leafValues>
            -3.9066100120544434e-01 4.4911500811576843e-01</leafValues></_>
        <_>
          <internalNodes>
            0 -1 122 -183483039 -81380064 1605192009 -404275228
            -1150831699 -1535770954 -1506633514 -474520512</internalNodes>
          <leafValues>
            -3.8155579566955566e-01 4.5359730720520020e-01</leafValues></_>
        <_>
          <internalNodes>
            0 -1 120 1200210152 1271334200 -1340538834 195658930
            -233974048 -757356512 269358054 527081615</internalNodes>
          <leafValues>
            -5.4884034395217896e-01 3.3683145046234131e-01</leafValues></_>
        <_>
          <internalNodes>
            0 -1 71 -1070333720 1359773977 1231274927 1754863239
            1275791690 1493786666 -618534614 2133019350</internalNodes>
          <leafValues>
            -4.7700616717338562e-01 3.7302774190902710e-01</leafValues></_></weakClassifiers></_>
    <!-- stage 14 -->
    <_>
      <maxWeakCount>10</maxWeakCount>
      <stageThreshold>-6.0729819536209106e-01</stageThreshold>
      <weakClassifiers>
        <_>
          <internalNodes>
            0 -1 162 1099952810 560409495 48289769 1912200785 1679013000
            1448439564 -710024568 1418589866</internalNodes>
          <leafValues>
            -1.2860310077667236e-01 5.8616507053375244e-01</leafValues></_>
        <_>
          <internalNodes>
            0 -1 103 2024024053 -705559499 -66319 -4059672 -1309610065
            -1671202 -1377701895 -1945958872</internalNodes>
          <leafValues>
            -3.2784241437911987e-01 4.4573971629142761e-01</leafValues></_>
        <_>
          <internalNodes>
            0 -1 67 -913386514 -246365872 865566895 -184418015 8400600
            305714057 1208887503 1325809179</internalNodes>
          <leafValues>
            -4.4548261165618896e-01 3.5214194655418396e-01</leafValues></_>
        <_>
          <internalNodes>
            0 -1 154 301150683 -134898348 -168659375 -1647024139
            -118939520 -871572404 1559240852 -648454912</internalNodes>
          <leafValues>
            -3.3120316267013550e-01 4.8030075430870056e-01</leafValues></_>
        <_>
          <internalNodes>
            0 -1 96 1342985372 2098228506 -1726211554 2077641564
            1074314650 -1683350869 1778412440 -1164553954</internalNodes>
          <leafValues>
            -4.8007118701934814e-01 3.5998103022575378e-01</leafValues></_>
        <_>
          <internalNodes>
            0 -1 30 -545664113 1606403069 -155235308 455473387 -27857265
            -145402299 -562847092 1757922890</internalNodes>
          <leafValues>
            -3.5469982028007507e-01 4.7758224606513977e-01</leafValues></_>
        <_>
          <internalNodes>
            0 -1 109 -741288711 -1188128838 1860744059 -70901928
            1428616411 478214132 920923276 -14509644</internalNodes>
          <leafValues>
            -3.2233321666717529e-01 5.3636175394058228e-01</leafValues></_>
        <_>
          <internalNodes>
            0 -1 93 8960640 1930175504 16878065 -652876918 302156538
            -1433222888 -1920429896 -427163263</internalNodes>
          <leafValues>
            -4.5750644803047180e-01 3.7788003683090210e-01</leafValues></_>
        <_>
          <internalNodes>
            0 -1 40 -296254907 1607823761 1073772606 -1701359037
            -1036974071 -1642528694 -931935574 -2138912205</internalNodes>
          <leafValues>
            -4.0330919623374939e-01 4.3565869331359863e-01</leafValues></_>
        <_>
          <internalNodes>
            0 -1 127 -695136957 -73269099 1401946392 1496490441
            -535297652 -637246776 -322774898 973101342</internalNodes>
          <leafValues>
            -5.4299414157867432e-01 3.1501680612564087e-01</leafValues></_></weakClassifiers></_>
    <!-- stage 15 -->
    <_>
      <maxWeakCount>11</maxWeakCount>
      <stageThreshold>-5.3155678510665894e-01</stageThreshold>
      <weakClassifiers>
        <_>
          <internalNodes>
            0 -1 175 -778498048 356662587 -1878667120 268882052
            311165012 -83359168 683922634 571501312</internalNodes>
          <leafValues>
            -5.3541076183319092e-01 4.7291761636734009e-01</leafValues></_>
        <_>
          <internalNodes>
            0 -1 149 -739269746 1422414724 269762823 1124165661
            1109072642 1661887116 -171858290 1984230338</internalNodes>
          <leafValues>
            -4.1064274311065674e-01 3.4194144606590271e-01</leafValues></_>
        <_>
          <internalNodes>
            0 -1 196 -355498233 1828970439 226691232 -268697652
            -2123553119 1077996804 -2017464101 -1040978580</internalNodes>
          <leafValues>
            -3.3344900608062744e-01 4.3816393613815308e-01</leafValues></_>
        <_>
          <internalNodes>
            0 -1 133 453572463 1241824796 1039676936 -256760315
            -1627324486 817922041 -198164671 -1135817261</internalNodes>
          <leafValues>
            -3.7979972362518311e-01 3.9859065413475037e-01</leafValues></_>
        <_>
          <internalNodes>
            0 -1 43 -908181101 -447699294 1879175649 -610036526
            1084874106 -293207936 1237933089 -843169342</internalNodes>
          <leafValues>
            -3.7862229347229004e-01 3.9961403608322144e-01</leafValues></_>
        <_>
          <internalNodes>
            0 -1 135 1965281723 1533558938 1790153690 -720806263
            1265629145 -893803272 1558868666 -873826162</internalNodes>
          <leafValues>
            -2.9552754759788513e-01 5.8713388442993164e-01</leafValues></_>
        <_>
          <internalNodes>
            0 -1 164 -3690528 1095860613 1695547438 600802592 526072459
            285237250 312851586 931114899</internalNodes>
          <leafValues>
            -4.8979085683822632e-01 3.3209544420242310e-01</leafValues></_>
        <_>
          <internalNodes>
            0 -1 41 -6791739 -537367528 721157887 -581537923 1878850750
            -1611481251 -1448804370 -388597898</internalNodes>
          <leafValues>
            -3.7760949134826660e-01 4.4965457916259766e-01</leafValues></_>
        <_>
          <internalNodes>
            0 -1 85 54559169 -887433069 67322711 -316206229 34114181
            -2104393563 1800372377 -2047885228</internalNodes>
          <leafValues>
            -4.0694025158882141e-01 3.9903506636619568e-01</leafValues></_>
        <_>
          <internalNodes>
            0 -1 31 -746080630 -985616109 1075232848 1648367566 33725083
            1661084736 -110853894 403888858</internalNodes>
          <leafValues>
            -5.5404430627822876e-01 3.0978253483772278e-01</leafValues></_>
        <_>
          <internalNodes>
            0 -1 83 -1636858232 -115782599 -856932587 2077347467
            1148223684 -154774442 941825951 -620789695</internalNodes>
          <leafValues>
            -3.6464381217956543e-01 4.9740287661552429e-01</leafValues></_></weakClassifiers></_>
    <!-- stage 16 -->
    <_>
      <maxWeakCount>10</maxWeakCount>
      <stageThreshold>-5.0331127643585205e-01</stageThreshold>
      <weakClassifiers>
        <_>
          <internalNodes>
            0 -1 118 -177212161 1969814893 553626346 619970551 -20000246
            203750942 283374318 1920725224</internalNodes>
          <leafValues>
            -2.8064516186714172e-01 5.3056997060775757e-01</leafValues></_>
        <_>
          <internalNodes>
            0 -1 45 -1894849869 -1387623806 801077753 -10027102
            -1365245957 -1930430538 -1208662043 -809509196</internalNodes>
          <leafValues>
            -3.0448958277702332e-01 4.5056039094924927e-01</leafValues></_>
        <_>
          <internalNodes>
            0 -1 29 1476812998 1988762101 -984805198 -1418161460
            17291631 1946225362 -1985792246 -170525689</internalNodes>
          <leafValues>
            -3.9339089393615723e-01 3.6866372823715210e-01</leafValues></_>
        <_>
          <internalNodes>
            0 -1 91 -273898509 -450874823 2113305983 -812001462
            1338025983 -1346568542 -1915490627 -1612858111</internalNodes>
          <leafValues>
            -2.9087823629379272e-01 5.2598804235458374e-01</leafValues></_>
        <_>
          <internalNodes>
            0 -1 14 -132782644 1644221906 -1879039972 1221709879
            1361519133 1260931841 -770053620 505277951</internalNodes>
          <leafValues>
            -4.4936174154281616e-01 3.8472720980644226e-01</leafValues></_>
        <_>
          <internalNodes>
            0 -1 138 -35788801 822189816 1150111916 -577015813
            1707052987 730736642 95918891 -2754581</internalNodes>
          <leafValues>
            -2.9131609201431274e-01 6.3980793952941895e-01</leafValues></_>
        <_>
          <internalNodes>
            0 -1 192 -679263932 1409900686 1143036288 1429851779
            -1818975730 -1654652797 192780680 978709126</internalNodes>
          <leafValues>
            -5.3462058305740356e-01 3.2715898752212524e-01</leafValues></_>
        <_>
          <internalNodes>
            0 -1 97 -529505935 -1619707149 -1224765761 -645961
            -281763881 -235143947 -2024887889 -1902342940</internalNodes>
          <leafValues>
            -3.2926505804061890e-01 4.9274930357933044e-01</leafValues></_>
        <_>
          <internalNodes>
            0 -1 121 -786984156 1460650392 -1190789097 -247259093
            -502068506 -1610415464 -1342068519 1632051499</internalNodes>
          <leafValues>
            -4.4444844126701355e-01 4.0531027317047119e-01</leafValues></_>
        <_>
          <internalNodes>
            0 -1 196 701298179 185269708 -1683764064 -537968683
            -1524124975 1078852974 -1254114647 -36176479</internalNodes>
          <leafValues>
            -3.7499475479125977e-01 4.8618498444557190e-01</leafValues></_></weakClassifiers></_>
    <!-- stage 17 -->
    <_>
      <maxWeakCount>11</maxWeakCount>
      <stageThreshold>-4.7404745221138000e-01</stageThreshold>
      <weakClassifiers>
        <_>
          <internalNodes>
            0 -1 186 -252639224 1998536458 -83969526 -1297188422
            -1378401094 1701918587 1693297870 -1604059677</internalNodes>
          <leafValues>
            -1.8007662892341614e-01 5.6083756685256958e-01</leafValues></_>
        <_>
          <internalNodes>
            0 -1 92 -9770081 -573300756 -1629600292 -1278049416
            -2058690748 -859568980 -7971376 -4404756</internalNodes>
          <leafValues>
            -3.0082297325134277e-01 4.5755335688591003e-01</leafValues></_>
        <_>
          <internalNodes>
            0 -1 115 -626962723 242603196 -101860885 -109316871
            -1284153973 -239355905 -881339533 -352078145</internalNodes>
          <leafValues>
            -2.7205559611320496e-01 5.2106595039367676e-01</leafValues></_>
        <_>
          <internalNodes>
            0 -1 9 134730987 1221431591 -233975782 -738151230
            -2013097729 -251032558 -1861795836 -520107582</internalNodes>
          <leafValues>
            -4.4031956791877747e-01 3.6026480793952942e-01</leafValues></_>
        <_>
          <internalNodes>
            0 -1 127 -1233497379 2142870779 -9994789 -571695269
            2083805661 -10551339 1996124142 -1440056259</internalNodes>
          <leafValues>
            -3.0515789985656738e-01 5.0888788700103760e-01</leafValues></_>
        <_>
          <internalNodes>
            0 -1 6 -200987442 -1639198582 536920196 -1082032122
            -938972955 1413490947 -838508295 1089586378</internalNodes>
          <leafValues>
            -5.3420358896255493e-01 3.0979120731353760e-01</leafValues></_>
        <_>
          <internalNodes>
            0 -1 18 318939694 1631683848 567390447 221578634 908165337
            -2078146399 605558153 1074795264</internalNodes>
          <leafValues>
            -5.9701275825500488e-01 2.8172621130943298e-01</leafValues></_>
        <_>
          <internalNodes>
            0 -1 123 1895927472 1393864838 7014407 2145993094
            -1968632194 454633736 2015438415 1595904971</internalNodes>
          <leafValues>
            -4.4549211859703064e-01 3.8477614521980286e-01</leafValues></_>
        <_>
          <internalNodes>
            0 -1 150 -1287670906 -581739260 -1459060222 858208494
            -237236224 1930104704 1083936682 1925570698</internalNodes>
          <leafValues>
            -5.0601649284362793e-01 3.3153280615806580e-01</leafValues></_>
        <_>
          <internalNodes>
            0 -1 89 -1460531571 -738505017 -1078055499 -1887507898
            -36854628 -321405203 -59238214 -1948562827</internalNodes>
          <leafValues>
            -3.7087559700012207e-01 4.9222946166992188e-01</leafValues></_>
        <_>
          <internalNodes>
            0 -1 49 -899448158 134391830 822952215 159802375 287898
            -1140260598 1126249953 1168978714</internalNodes>
          <leafValues>
            -5.5808436870574951e-01 3.3641964197158813e-01</leafValues></_></weakClassifiers></_>
    <!-- stage 18 -->
    <_>
      <maxWeakCount>10</maxWeakCount>
      <stageThreshold>-6.4317953586578369e-01</stageThreshold>
      <weakClassifiers>
        <_>
          <internalNodes>
            0 -1 161 -71640405 859230063 314506925 805371014 -352342516
            2088754716 553640687 1080948734</internalNodes>
          <leafValues>
            -3.1598514318466187e-01 5.0695824623107910e-01</leafValues></_>
        <_>
          <internalNodes>
            0 -1 102 263877119 522319791 -1074913289 -1724244172
            1366857695 465837788 -1906684421 -1087842048</internalNodes>
          <leafValues>
            -2.6390671730041504e-01 4.9657064676284790e-01</leafValues></_>
        <_>
          <internalNodes>
            0 -1 69 -179861316 1408573578 282251422 468861868 548372636
            625574344 -1868166501 466862573</internalNodes>
          <leafValues>
            -3.7898933887481689e-01 3.7047794461250305e-01</leafValues></_>
        <_>
          <internalNodes>
            0 -1 152 -1543601498 -1853140438 -1409277608 429689880
            697434266 424036688 1124838147 1426440383</internalNodes>
          <leafValues>
            -4.6603977680206299e-01 3.0758786201477051e-01</leafValues></_>
        <_>
          <internalNodes>
            0 -1 44 922995027 105481474 1023770661 -1379511592
            -1425963325 -1956906865 -1138939961 -1916032835</internalNodes>
          <leafValues>
            -4.0628865361213684e-01 3.7321168184280396e-01</leafValues></_>
        <_>
          <internalNodes>
            0 -1 28 -1091502677 -35402563 -1447371455 -15348041
            720805546 -1654562853 -541090605 2031964229</internalNodes>
          <leafValues>
            -3.3634519577026367e-01 4.6918123960494995e-01</leafValues></_>
        <_>
          <internalNodes>
            0 -1 26 77593359 1276085004 103721646 -537936130 -1241778193
            759427071 612177655 -990120961</internalNodes>
          <leafValues>
            -3.6078333854675293e-01 4.4786950945854187e-01</leafValues></_>
        <_>
          <internalNodes>
            0 -1 184 -263081843 970133507 -2146429454 277542634
            -1463794998 -356384730 -654059074 -2139764049</internalNodes>
          <leafValues>
            -4.2580166459083557e-01 3.9742594957351685e-01</leafValues></_>
        <_>
          <internalNodes>
            0 -1 15 1532224262 704004249 1073834268 45320215 176236901
            1613176905 -746403729 -1798964770</internalNodes>
          <leafValues>
            -4.6758478879928589e-01 3.8272145390510559e-01</leafValues></_>
        <_>
          <internalNodes>
            0 -1 12 -302522401 469220194 1005583142 -84218070 -152570021
            1451163519 -235735916 -251941941</internalNodes>
          <leafValues>
            -3.8876214623451233e-01 4.6197417378425598e-01</leafValues></_></weakClassifiers></_>
    <!-- stage 19 -->
    <_>
      <maxWeakCount>10</maxWeakCount>
      <stageThreshold>-4.7116157412528992e-01</stageThreshold>
      <weakClassifiers>
        <_>
          <internalNodes>
            0 -1 165 1560173823 -36938124 1073708923 1527271228
            -1132569516 -593559588 -26323858 671096138</internalNodes>
          <leafValues>
            -2.6265823841094971e-01 5.2971845865249634e-01</leafValues></_>
        <_>
          <internalNodes>
            0 -1 87 -1901421097 632251624 -277131489 -168034491
            -1931493410 -1393660044 -1906879234 -1882208371</internalNodes>
          <leafValues>
            -2.4525231122970581e-01 5.2006548643112183e-01</leafValues></_>
        <_>
          <internalNodes>
            0 -1 140 -109315937 -444515072 475337936 -848212005
            2087558351 -1110154132 894798923 -537937729</internalNodes>
          <leafValues>
            -2.2876875102519989e-01 6.1613672971725464e-01</leafValues></_>
        <_>
          <internalNodes>
            0 -1 105 -1878887222 -712671098 -977496691 1607306122
            -1568557879 -561772126 -525499767 -553543680</internalNodes>
          <leafValues>
            -3.8842567801475525e-01 3.7428632378578186e-01</leafValues></_>
        <_>
          <internalNodes>
            0 -1 70 -903870392 285474836 176210142 327305602 -795825475
            2047584263 -1996698710 575834115</internalNodes>
          <leafValues>
            -5.2843594551086426e-01 2.7571326494216919e-01</leafValues></_>
        <_>
          <internalNodes>
            0 -1 77 -1526634192 -1964310991 1324159829 -1082339387
            -416854065 -1393702156 -295213387 -486812615</internalNodes>
          <leafValues>
            -3.7618336081504822e-01 4.0801545977592468e-01</leafValues></_>
        <_>
          <internalNodes>
            0 -1 177 1972480226 1604563319 -2013196639 512467722
            -1769919643 -1173708246 -964017655 1905868571</internalNodes>
          <leafValues>
            -4.6740883588790894e-01 3.3421564102172852e-01</leafValues></_>
        <_>
          <internalNodes>
            0 -1 183 -710680338 1931559437 24153562 1694700964 277455000
            -872283944 -1996427048 -1419153968</internalNodes>
          <leafValues>
            -3.9020678400993347e-01 4.3035843968391418e-01</leafValues></_>
        <_>
          <internalNodes>
            0 -1 187 1976713205 336783357 -268484629 99958452 830516154
            1443673986 -1087431392 -645399398</internalNodes>
          <leafValues>
            -3.5801491141319275e-01 4.5120897889137268e-01</leafValues></_>
        <_>
          <internalNodes>
            0 -1 19 -694369041 -235566726 -17154267 -1296550919
            1324154844 -470384675 1138510799 -1438637281</internalNodes>
          <leafValues>
            -3.5036242008209229e-01 4.8520404100418091e-01</leafValues></_></weakClassifiers></_></stages>
  <features>
    <_>
      <rect>
        0 2 2 7</rect></_>
    <_>
      <rect>
        0 2 7 3</rect></_>
    <_>
      <rect>
        0 5 1 2</rect></_>
    <_>
      <rect>
        0 7 2 3</rect></_>
    <_>
      <rect>
        0 9 4 4</rect></_>
    <_>
      <rect>
        0 10 1 2</rect></_>
    <_>
      <rect>
        0 10 2 3</rect></_>
    <_>
      <rect>
        1 2 7 3</rect></_>
    <_>
      <rect>
        1 6 1 1</rect></_>
    <_>
      <rect>
        1 7 1 1</rect></_>
    <_>
      <rect>
        1 7 1 2</rect></_>
    <_>
      <rect>
        1 8 1 2</rect></_>
    <_>
      <rect>
        1 9 1 1</rect></_>
    <_>
      <rect>
        1 10 1 1</rect></_>
    <_>
      <rect>
        1 10 1 3</rect></_>
    <_>
      <rect>
        1 11 1 2</rect></_>
    <_>
      <rect>
        1 13 1 1</rect></_>
    <_>
      <rect>
        1 13 1 3</rect></_>
    <_>
      <rect>
        1 13 7 2</rect></_>
    <_>
      <rect>
        2 2 2 4</rect></_>
    <_>
      <rect>
        2 3 2 2</rect></_>
    <_>
      <rect>
        2 3 4 3</rect></_>
    <_>
      <rect>
        2 3 6 3</rect></_>
    <_>
      <rect>
        2 5 1 1</rect></_>
    <_>
      <rect>
        2 5 2 4</rect></_>
    <_>
      <rect>
        2 6 1 3</rect></_>
    <_>
      <rect>
        2 7 1 1</rect></_>
    <_>
      <rect>
        2 7 1 4</rect></_>
    <_>
      <rect>
        2 9 3 5</rect></_>
    <_>
      <rect>
        2 10 1 1</rect></_>
    <_>
      <rect>
        2 10 1 2</rect></_>
    <_>
      <rect>
        2 10 1 3</rect></_>
    <_>
      <rect>
        2 11 1 1</rect></_>
    <_>
      <rect>
        2 11 1 2</rect></_>
    <_>
      <rect>
        2 12 1 1</rect></_>
    <_>
      <rect>
        2 12 1 2</rect></_>
    <_>
      <rect>
        2 12 5 4</rect></_>
    <_>
      <rect>
        2 14 1 1</rect></_>
    <_>
      <rect>
        2 14 1 2</rect></_>
    <_>
      <rect>
        2 15 1 2</rect></_>
    <_>
      <rect>
        2 16 1 1</rect></_>
    <_>
      <rect>
        2 16 1 2</rect></_>
    <_>
      <rect>
        2 17 1 1</rect></_>
    <_>
      <rect>
        3 3 2 2</rect></_>
    <_>
      <rect>
        3 4 1 1</rect></_>
    <_>
      <rect>
        3 5 1 1</rect></_>
    <_>
      <rect>
        3 5 1 2</rect></_>
    <_>
      <rect>
        3 6 1 2</rect></_>
    <_>
      <rect>
        3 7 1 1</rect></_>
    <_>
      <rect>
        3 7 1 2</rect></_>
    <_>
      <rect>
        3 8 1 2</rect></_>
    <_>
      <rect>
        3 9 1 1</rect></_>
    <_>
      <rect>
        3 9 1 3</rect></_>
    <_>
      <rect>
        3 13 1 1</rect></_>
    <_>
      <rect>
        3 14 1 1</rect></_>
    <_>
      <rect>
        3 14 1 2</rect></_>
    <_>
      <rect>
        3 14 5 2</rect></_>
    <_>
      <rect>
        3 15 1 1</rect></_>
    <_>
      <rect>
        3 16 1 2</rect></_>
    <_>
      <rect>
        3 17 1 1</rect></_>
    <_>
      <rect>
        3 17 1 2</rect></_>
    <_>
      <rect>
        3 18 1 1</rect></_>
    <_>
      <rect>
        3 19 2 1</rect></_>
    <_>
      <rect>
        4 3 1 2</rect></_>
    <_>
      <rect>
        4 3 2 1</rect></_>
    <_>
      <rect>
        4 4 1 1</rect></_>
    <_>
      <rect>
        4 4 1 2</rect></_>
    <_>
      <rect>
        4 4 2 2</rect></_>
    <_>
      <rect>
        4 5 1 1</rect></_>
    <_>
      <rect>
        4 11 1 1</rect></_>
    <_>
      <rect>
        4 12 1 1</rect></_>
    <_>
      <rect>
        4 14 1 1</rect></_>
    <_>
      <rect>
        4 17 1 1</rect></_>
    <_>
      <rect>
        4 17 2 2</rect></_>
    <_>
      <rect>
        4 18 1 1</rect></_>
    <_>
      <rect>
        4 19 1 1</rect></_>
    <_>
      <rect>
        4 19 2 1</rect></_>
    <_>
      <rect>
        5 2 1 1</rect></_>
    <_>
      <rect>
        5 2 5 3</rect></_>
    <_>
      <rect>
        5 3 1 1</rect></_>
    <_>
      <rect>
        5 3 2 1</rect></_>
    <_>
      <rect>
        5 3 2 3</rect></_>
    <_>
      <rect>
        5 4 1 1</rect></_>
    <_>
      <rect>
        5 12 1 1</rect></_>
    <_>
      <rect>
        5 18 1 1</rect></_>
    <_>
      <rect>
        6 2 1 1</rect></_>
    <_>
      <rect>
        6 2 2 1</rect></_>
    <_>
      <rect>
        6 4 1 1</rect></_>
    <_>
      <rect>
        6 19 1 1</rect></_>
    <_>
      <rect>
        6 21 2 1</rect></_>
    <_>
      <rect>
        7 0 1 1</rect></_>
    <_>
      <rect>
        7 2 2 1</rect></_>
    <_>
      <rect>
        7 2 5 7</rect></_>
    <_>
      <rect>
        7 3 1 1</rect></_>
    <_>
      <rect>
        7 3 2 1</rect></_>
    <_>
      <rect>
        7 18 4 2</rect></_>
    <_>
      <rect>
        7 19 1 1</rect></_>
    <_>
      <rect>
        8 1 1 1</rect></_>
    <_>
      <rect>
        8 1 2 1</rect></_>
    <_>
      <rect>
        8 2 2 1</rect></_>
    <_>
      <rect>
        8 11 1 1</rect></_>
    <_>
      <rect>
        8 15 3 2</rect></_>
    <_>
      <rect>
        9 0 2 1</rect></_>
    <_>
      <rect>
        9 0 2 2</rect></_>
    <_>
      <rect>
        10 0 2 1</rect></_>
    <_>
      <rect>
        10 0 3 2</rect></_>
    <_>
      <rect>
        10 1 3 2</rect></_>
    <_>
      <rect>
        10 4 2 2</rect></_>
    <_>
      <rect>
        10 10 1 1</rect></_>
    <_>
      <rect>
        10 10 4 2</rect></_>
    <_>
      <rect>
        11 0 2 1</rect></_>
    <_>
      <rect>
        11 3 2 1</rect></_>
    <_>
      <rect>
        11 3 3 1</rect></_>
    <_>
      <rect>
        11 3 3 3</rect></_>
    <_>
      <rect>
        11 6 3 4</rect></_>
    <_>
      <rect>
        12 0 3 3</rect></_>
    <_>
      <rect>
        12 3 1 1</rect></_>
    <_>
      <rect>
        12 3 2 1</rect></_>
    <_>
      <rect>
        12 4 3 1</rect></_>
    <_>
      <rect>
        12 4 3 3</rect></_>
    <_>
      <rect>
        12 5 3 3</rect></_>
    <_>
      <rect>
        12 8 1 2</rect></_>
    <_>
      <rect>
        12 9 3 4</rect></_>
    <_>
      <rect>
        12 10 1 2</rect></_>
    <_>
      <rect>
        12 11 1 1</rect></_>
    <_>
      <rect>
        13 1 2 2</rect></_>
    <_>
      <rect>
        13 1 3 3</rect></_>
    <_>
      <rect>
        13 2 1 1</rect></_>
    <_>
      <rect>
        13 2 2 2</rect></_>
    <_>
      <rect>
        13 3 1 1</rect></_>
    <_>
      <rect>
        13 3 2 1</rect></_>
    <_>
      <rect>
        13 4 1 1</rect></_>
    <_>
      <rect>
        13 4 2 1</rect></_>
    <_>
      <rect>
        13 6 2 4</rect></_>
    <_>
      <rect>
        13 6 3 4</rect></_>
    <_>
      <rect>
        13 8 2 1</rect></_>
    <_>
      <rect>
        13 10 1 1</rect></_>
    <_>
      <rect>
        13 10 1 2</rect></_>
    <_>
      <rect>
        13 11 1 2</rect></_>
    <_>
      <rect>
        13 12 1 1</rect></_>
    <_>
      <rect>
        13 12 1 2</rect></_>
    <_>
      <rect>
        13 15 2 2</rect></_>
    <_>
      <rect>
        14 1 1 1</rect></_>
    <_>
      <rect>
        14 1 2 7</rect></_>
    <_>
      <rect>
        14 2 1 1</rect></_>
    <_>
      <rect>
        14 2 2 2</rect></_>
    <_>
      <rect>
        14 3 1 1</rect></_>
    <_>
      <rect>
        14 3 2 2</rect></_>
    <_>
      <rect>
        14 4 2 1</rect></_>
    <_>
      <rect>
        14 8 1 2</rect></_>
    <_>
      <rect>
        14 10 1 1</rect></_>
    <_>
      <rect>
        14 11 1 1</rect></_>
    <_>
      <rect>
        14 11 1 2</rect></_>
    <_>
      <rect>
        14 14 2 2</rect></_>
    <_>
      <rect>
        14 18 3 1</rect></_>
    <_>
      <rect>
        15 2 1 1</rect></_>
    <_>
      <rect>
        15 2 2 3</rect></_>
    <_>
      <rect>
        15 3 1 1</rect></_>
    <_>
      <rect>
        15 4 1 1</rect></_>
    <_>
      <rect>
        15 4 2 1</rect></_>
    <_>
      <rect>
        15 5 1 1</rect></_>
    <_>
      <rect>
        15 5 2 1</rect></_>
    <_>
      <rect>
        15 8 1 2</rect></_>
    <_>
      <rect>
        15 10 1 1</rect></_>
    <_>
      <rect>
        15 11 1 1</rect></_>
    <_>
      <rect>
        16 3 1 1</rect></_>
    <_>
      <rect>
        16 4 1 1</rect></_>
    <_>
      <rect>
        16 5 1 1</rect></_>
    <_>
      <rect>
        16 5 2 3</rect></_>
    <_>
      <rect>
        16 6 1 1</rect></_>
    <_>
      <rect>
        16 7 1 2</rect></_>
    <_>
      <rect>
        16 8 1 2</rect></_>
    <_>
      <rect>
        17 4 1 1</rect></_>
    <_>
      <rect>
        17 5 1 1</rect></_>
    <_>
      <rect>
        17 5 2 6</rect></_>
    <_>
      <rect>
        17 6 1 1</rect></_>
    <_>
      <rect>
        17 6 1 2</rect></_>
    <_>
      <rect>
        17 9 1 1</rect></_>
    <_>
      <rect>
        17 11 1 1</rect></_>
    <_>
      <rect>
        18 4 1 2</rect></_>
    <_>
      <rect>
        18 5 1 1</rect></_>
    <_>
      <rect>
        18 5 1 2</rect></_>
    <_>
      <rect>
        18 6 1 1</rect></_>
    <_>
      <rect>
        18 6 1 2</rect></_>
    <_>
      <rect>
        18 7 1 1</rect></_>
    <_>
      <rect>
        18 7 1 2</rect></_>
    <_>
      <rect>
        18 8 1 1</rect></_>
    <_>
      <rect>
        18 8 2 2</rect></_>
    <_>
      <rect>
        18 9 1 1</rect></_>
    <_>
      <rect>
        18 10 2 1</rect></_>
    <_>
      <rect>
        19 6 1 2</rect></_>
    <_>
      <rect>
        19 7 1 1</rect></_>
    <_>
      <rect>
        19 7 1 2</rect></_>
    <_>
      <rect>
        19 8 1 1</rect></_>
    <_>
      <rect>
        19 9 1 1</rect></_>
    <_>
      <rect>
        19 10 1 1</rect></_>
    <_>
      <rect>
        19 11 1 1</rect></_>
    <_>
      <rect>
        20 7 1 2</rect></_>
    <_>
      <rect>
        20 9 1 1</rect></_></features></cascade>
</opencv_storage>
