<?xml version="1.0"?>
<opencv_storage>
<cascade>
  <stageType>BOOST</stageType>
  <featureType>LBP</featureType>
  <height>30</height>
  <width>30</width>
  <stageParams>
    <boostType>GAB</boostType>
    <minHitRate>9.9500000476837158e-01</minHitRate>
    <maxFalseAlarm>5.0000000000000000e-01</maxFalseAlarm>
    <weightTrimRate>9.4999999999999996e-01</weightTrimRate>
    <maxDepth>1</maxDepth>
    <maxWeakCount>100</maxWeakCount></stageParams>
  <featureParams>
    <maxCatCount>256</maxCatCount>
    <featSize>1</featSize></featureParams>
  <stageNum>14</stageNum>
  <stages>
    <!-- stage 0 -->
    <_>
      <maxWeakCount>1</maxWeakCount>
      <stageThreshold>9.3548387289047241e-01</stageThreshold>
      <weakClassifiers>
        <_>
          <internalNodes>
            0 -1 10 -606077442 -48901785 -754499109 -608238177
            -1307707141 -348405605 -610598913 -1049857</internalNodes>
          <leafValues>
            -1. 9.3548387289047241e-01</leafValues></_></weakClassifiers></_>
    <!-- stage 1 -->
    <_>
      <maxWeakCount>2</maxWeakCount>
      <stageThreshold>-2.2648267447948456e-01</stageThreshold>
      <weakClassifiers>
        <_>
          <internalNodes>
            0 -1 9 -203685889 -174092065 -1157060422 -6564901 1497862611
            -1654054760 -49181697 -1319249</internalNodes>
          <leafValues>
            -9.1198045015335083e-01 8.7460148334503174e-01</leafValues></_>
        <_>
          <internalNodes>
            0 -1 27 -6291593 -1626384109 -1852976804 -136603473
            -226496064 -1148537959 -1151115020 -268435713</internalNodes>
          <leafValues>
            -9.3839901685714722e-01 6.8549776077270508e-01</leafValues></_></weakClassifiers></_>
    <!-- stage 2 -->
    <_>
      <maxWeakCount>2</maxWeakCount>
      <stageThreshold>-2.8257241845130920e-01</stageThreshold>
      <weakClassifiers>
        <_>
          <internalNodes>
            0 -1 16 -18891777 -829775087 1380335711 -368129705 -24131413
            -1086128118 -1290681661 -5689</internalNodes>
          <leafValues>
            -9.2468619346618652e-01 7.8819972276687622e-01</leafValues></_>
        <_>
          <internalNodes>
            0 -1 29 -71346857 -808488001 -1073229243 -480794529
            -891595761 -926179186 -1997897213 -69211353</internalNodes>
          <leafValues>
            -9.0188878774642944e-01 6.4211380481719971e-01</leafValues></_></weakClassifiers></_>
    <!-- stage 3 -->
    <_>
      <maxWeakCount>2</maxWeakCount>
      <stageThreshold>-2.2536228597164154e-01</stageThreshold>
      <weakClassifiers>
        <_>
          <internalNodes>
            0 -1 6 -177865233 -780029759 553677015 -606736011
            -1600062997 -253697887 -794764037 -607915327</internalNodes>
          <leafValues>
            -8.7701320648193359e-01 7.4318295717239380e-01</leafValues></_>
        <_>
          <internalNodes>
            0 -1 12 -753935905 -5574238 1091805533 231687391 -2146660161
            -544226357 -645819621 1574951391</internalNodes>
          <leafValues>
            -8.1664323806762695e-01 6.5165090560913086e-01</leafValues></_></weakClassifiers></_>
    <!-- stage 4 -->
    <_>
      <maxWeakCount>2</maxWeakCount>
      <stageThreshold>-2.4253110587596893e-01</stageThreshold>
      <weakClassifiers>
        <_>
          <internalNodes>
            0 -1 4 -2105345 -606104681 1074727627 1158086745 -611605569
            54723458 504299819 51368335</internalNodes>
          <leafValues>
            -8.8685017824172974e-01 7.2336268424987793e-01</leafValues></_>
        <_>
          <internalNodes>
            0 -1 38 -262145 1967857695 17907987 453050399 -100475941
            839974927 806476698 1057216911</internalNodes>
          <leafValues>
            -7.9010057449340820e-01 6.4431905746459961e-01</leafValues></_></weakClassifiers></_>
    <!-- stage 5 -->
    <_>
      <maxWeakCount>3</maxWeakCount>
      <stageThreshold>-7.9913437366485596e-01</stageThreshold>
      <weakClassifiers>
        <_>
          <internalNodes>
            0 -1 20 -203828737 1090617949 -799213316 -1325197291
            -2138481954 2048394384 268499196 -80084993</internalNodes>
          <leafValues>
            -8.6280488967895508e-01 7.1722114086151123e-01</leafValues></_>
        <_>
          <internalNodes>
            0 -1 22 -775564828 -44187545 72471037 -548274275 1078127034
            -1466333178 17287407 1195501855</internalNodes>
          <leafValues>
            -8.0269432067871094e-01 5.8249169588088989e-01</leafValues></_>
        <_>
          <internalNodes>
            0 -1 32 -52604836 -56947332 -603865569 -576810467
            -1194690344 -1905653670 -1203596546 -90178946</internalNodes>
          <leafValues>
            -7.1366119384765625e-01 6.3351762294769287e-01</leafValues></_></weakClassifiers></_>
    <!-- stage 6 -->
    <_>
      <maxWeakCount>4</maxWeakCount>
      <stageThreshold>-1.3167514801025391e+00</stageThreshold>
      <weakClassifiers>
        <_>
          <internalNodes>
            0 -1 25 -148674797 -149717197 -10256521 -14418029 -14157901
            -11010113 -147595341 -14418045</internalNodes>
          <leafValues>
            -6.9035530090332031e-01 7.5523012876510620e-01</leafValues></_>
        <_>
          <internalNodes>
            0 -1 7 -10493997 1435828528 271040539 1431000353 -2004682001
            -1207893760 2074781 322388241</internalNodes>
          <leafValues>
            -7.4116724729537964e-01 6.2456786632537842e-01</leafValues></_>
        <_>
          <internalNodes>
            0 -1 30 -1129070597 -71436064 -1431655766 -1079967824
            137932456 -18050576 -1416823825 -4522055</internalNodes>
          <leafValues>
            -6.4788669347763062e-01 7.2925430536270142e-01</leafValues></_>
        <_>
          <internalNodes>
            0 -1 41 -70127117 -790336 1372668113 1431553009 -351614294
            -1726283638 118136063 453970911</internalNodes>
          <leafValues>
            -6.8292766809463501e-01 6.9592785835266113e-01</leafValues></_></weakClassifiers></_>
    <!-- stage 7 -->
    <_>
      <maxWeakCount>4</maxWeakCount>
      <stageThreshold>-6.1634272336959839e-02</stageThreshold>
      <weakClassifiers>
        <_>
          <internalNodes>
            0 -1 1 713814258 594505890 -268437518 1945104624 -1454442784
            -1610613518 -536870917 -1052432</internalNodes>
          <leafValues>
            -6.4450126886367798e-01 7.3201251029968262e-01</leafValues></_>
        <_>
          <internalNodes>
            0 -1 26 -189412307 -585170917 222926847 1595475097
            -392118018 -1381728113 8428799 134744987</internalNodes>
          <leafValues>
            -6.8490421772003174e-01 6.5235823392868042e-01</leafValues></_>
        <_>
          <internalNodes>
            0 -1 34 -752878593 -82181688 -1811869217 286066011
            -1156855297 -2012151670 141068795 185139374</internalNodes>
          <leafValues>
            -6.6652387380599976e-01 6.9207412004470825e-01</leafValues></_>
        <_>
          <internalNodes>
            0 -1 39 -706742022 -241995574 134316253 859636825 -913659734
            -888536957 16812735 458162943</internalNodes>
          <leafValues>
            -7.6156532764434814e-01 6.2409764528274536e-01</leafValues></_></weakClassifiers></_>
    <!-- stage 8 -->
    <_>
      <maxWeakCount>4</maxWeakCount>
      <stageThreshold>-1.7685501277446747e-01</stageThreshold>
      <weakClassifiers>
        <_>
          <internalNodes>
            0 -1 17 -1 -17670 -170001955 -248509944 -2 -536870913
            -436273016 1473089519</internalNodes>
          <leafValues>
            -5.9475564956665039e-01 7.5174635648727417e-01</leafValues></_>
        <_>
          <internalNodes>
            0 -1 11 1398108487 -75349582 805371925 179261509 -1878587230
            -273219455 -1027047288 -7372390</internalNodes>
          <leafValues>
            -7.8816568851470947e-01 5.8900910615921021e-01</leafValues></_>
        <_>
          <internalNodes>
            0 -1 43 -1289491784 -1207922640 -1215079083 -212733879
            -762462989 -8256279 -518489179 -14812683</internalNodes>
          <leafValues>
            -7.4857264757156372e-01 6.3165879249572754e-01</leafValues></_>
        <_>
          <internalNodes>
            0 -1 19 -1115490310 -720170560 -1592770157 387256593
            539592955 -2003267584 286791051 521359537</internalNodes>
          <leafValues>
            -7.6903784275054932e-01 6.1829775571823120e-01</leafValues></_></weakClassifiers></_>
    <!-- stage 9 -->
    <_>
      <maxWeakCount>4</maxWeakCount>
      <stageThreshold>-3.0103981494903564e-01</stageThreshold>
      <weakClassifiers>
        <_>
          <internalNodes>
            0 -1 31 -358657699 -796851703 -2147448685 -1290067429
            -1464082925 -1869971326 -1165315565 1925833639</internalNodes>
          <leafValues>
            -8.0813008546829224e-01 6.7002397775650024e-01</leafValues></_>
        <_>
          <internalNodes>
            0 -1 3 -134232948 -645793379 -1744699214 -192491129
            2076902540 1503019169 -924136002 1570754559</internalNodes>
          <leafValues>
            -7.6218199729919434e-01 5.6595283746719360e-01</leafValues></_>
        <_>
          <internalNodes>
            0 -1 42 -41168417 -15118326 1294137559 1465319701
            -1631462662 -1425536840 -1338798901 186321179</internalNodes>
          <leafValues>
            -6.5346908569335938e-01 6.5511119365692139e-01</leafValues></_>
        <_>
          <internalNodes>
            0 -1 8 -707528709 -787279616 268505401 1367412833
            -1459507217 -1936719872 363497115 366728321</internalNodes>
          <leafValues>
            -7.1397382020950317e-01 5.9814310073852539e-01</leafValues></_></weakClassifiers></_>
    <!-- stage 10 -->
    <_>
      <maxWeakCount>4</maxWeakCount>
      <stageThreshold>-1.6424381732940674e-01</stageThreshold>
      <weakClassifiers>
        <_>
          <internalNodes>
            0 -1 14 1610568799 185228794 1610579839 1599822858 469632190
            458180703 1602178303 528436479</internalNodes>
          <leafValues>
            -6.6529494524002075e-01 7.0268899202346802e-01</leafValues></_>
        <_>
          <internalNodes>
            0 -1 15 -1455387408 -1090256560 1099994429 525337360
            -1904113409 -1114832693 -1094682181 1600208951</internalNodes>
          <leafValues>
            -7.2572511434555054e-01 5.9811282157897949e-01</leafValues></_>
        <_>
          <internalNodes>
            0 -1 23 1128644891 -540045048 17241439 -303187791 1610854407
            -1299513193 -1912504133 15723471</internalNodes>
          <leafValues>
            -6.9636309146881104e-01 6.2559753656387329e-01</leafValues></_>
        <_>
          <internalNodes>
            0 -1 0 -95786246 -613953401 1414680792 -260009893
            -2008006432 -600801077 -1878987349 -655703381</internalNodes>
          <leafValues>
            -7.2265923023223877e-01 6.2487280368804932e-01</leafValues></_></weakClassifiers></_>
    <!-- stage 11 -->
    <_>
      <maxWeakCount>4</maxWeakCount>
      <stageThreshold>-3.1138598918914795e-01</stageThreshold>
      <weakClassifiers>
        <_>
          <internalNodes>
            0 -1 37 -263304626 -569700336 681203281 -16395882
            -1710610354 -27643818 135123466 -86049682</internalNodes>
          <leafValues>
            -7.1173846721649170e-01 6.8031573295593262e-01</leafValues></_>
        <_>
          <internalNodes>
            0 -1 28 -603693988 1561859101 630272509 2100760917
            -1132226324 -393705319 144591098 170580651</internalNodes>
          <leafValues>
            -6.9372427463531494e-01 6.2355923652648926e-01</leafValues></_>
        <_>
          <internalNodes>
            0 -1 24 -1055698541 -800555006 17825792 -582889248 85136075
            -754351934 1375853483 -857214553</internalNodes>
          <leafValues>
            -8.1134462356567383e-01 5.1464301347732544e-01</leafValues></_>
        <_>
          <internalNodes>
            0 -1 5 -177024257 -788151101 143249742 1366772041
            -1853441918 102482056 1646465579 1394039563</internalNodes>
          <leafValues>
            -7.2864639759063721e-01 5.8813786506652832e-01</leafValues></_></weakClassifiers></_>
    <!-- stage 12 -->
    <_>
      <maxWeakCount>5</maxWeakCount>
      <stageThreshold>-6.4781802892684937e-01</stageThreshold>
      <weakClassifiers>
        <_>
          <internalNodes>
            0 -1 13 -1 -1 -1330055976 -37093891 -1140855042 -16777217
            -1470064504 -1716588374</internalNodes>
          <leafValues>
            -6.3541668653488159e-01 7.1842652559280396e-01</leafValues></_>
        <_>
          <internalNodes>
            0 -1 18 -671939468 -654229412 -1828650631 1568735489
            -2013206276 -980749942 -1742546691 -1628415313</internalNodes>
          <leafValues>
            -6.3649189472198486e-01 6.7603951692581177e-01</leafValues></_>
        <_>
          <internalNodes>
            0 -1 44 -232854534 -1845450734 1073746448 -1220093176
            -1065095025 -1339555840 -1532641127 -70260243</internalNodes>
          <leafValues>
            -6.9189405441284180e-01 6.3110685348510742e-01</leafValues></_>
        <_>
          <internalNodes>
            0 -1 2 1699470240 1470321506 8438627 1367307075 9152714
            -2004287081 -888600337 -68158473</internalNodes>
          <leafValues>
            -6.5804076194763184e-01 6.7465591430664063e-01</leafValues></_>
        <_>
          <internalNodes>
            0 -1 21 -801064744 -1273657052 1409317205 -552328787
            -669490983 -643268480 134867101 -1089672530</internalNodes>
          <leafValues>
            -6.9025212526321411e-01 6.6149395704269409e-01</leafValues></_></weakClassifiers></_>
    <!-- stage 13 -->
    <_>
      <maxWeakCount>4</maxWeakCount>
      <stageThreshold>5.0710644572973251e-02</stageThreshold>
      <weakClassifiers>
        <_>
          <internalNodes>
            0 -1 36 1432245340 -589537570 -1147265 -1073849121
            -127107746 -285327875 1039695582 -270631713</internalNodes>
          <leafValues>
            -6.2684869766235352e-01 7.9681491851806641e-01</leafValues></_>
        <_>
          <internalNodes>
            0 -1 35 -146816240 -1151901550 1766708642 1125604188
            -1074167120 1445671952 655548351 322933183</internalNodes>
          <leafValues>
            -7.1035748720169067e-01 7.8129851818084717e-01</leafValues></_>
        <_>
          <internalNodes>
            0 -1 33 -506739973 1224851664 17303643 1426276352 277012632
            285442057 688265 319676043</internalNodes>
          <leafValues>
            -7.4561911821365356e-01 7.6335656642913818e-01</leafValues></_>
        <_>
          <internalNodes>
            0 -1 40 -1023295094 -2111696894 134217869 1092288773 1675704
            940052482 134254721 -917922795</internalNodes>
          <leafValues>
            -7.7858299016952515e-01 7.0987224578857422e-01</leafValues></_></weakClassifiers></_></stages>
  <features>
    <_>
      <rect>
        1 15 3 4</rect></_>
    <_>
      <rect>
        2 2 3 4</rect></_>
    <_>
      <rect>
        2 4 2 5</rect></_>
    <_>
      <rect>
        2 11 2 5</rect></_>
    <_>
      <rect>
        3 8 3 5</rect></_>
    <_>
      <rect>
        4 9 1 4</rect></_>
    <_>
      <rect>
        5 4 6 4</rect></_>
    <_>
      <rect>
        5 5 2 3</rect></_>
    <_>
      <rect>
        5 5 3 2</rect></_>
    <_>
      <rect>
        5 11 6 5</rect></_>
    <_>
      <rect>
        6 6 6 6</rect></_>
    <_>
      <rect>
        6 10 3 5</rect></_>
    <_>
      <rect>
        6 14 3 4</rect></_>
    <_>
      <rect>
        6 16 8 3</rect></_>
    <_>
      <rect>
        6 19 2 2</rect></_>
    <_>
      <rect>
        7 3 4 1</rect></_>
    <_>
      <rect>
        7 9 3 5</rect></_>
    <_>
      <rect>
        7 18 5 3</rect></_>
    <_>
      <rect>
        7 22 2 2</rect></_>
    <_>
      <rect>
        8 4 2 1</rect></_>
    <_>
      <rect>
        9 14 5 4</rect></_>
    <_>
      <rect>
        10 1 4 2</rect></_>
    <_>
      <rect>
        10 4 4 2</rect></_>
    <_>
      <rect>
        10 15 2 3</rect></_>
    <_>
      <rect>
        11 14 2 3</rect></_>
    <_>
      <rect>
        12 0 4 4</rect></_>
    <_>
      <rect>
        12 4 3 1</rect></_>
    <_>
      <rect>
        12 10 4 5</rect></_>
    <_>
      <rect>
        13 3 3 1</rect></_>
    <_>
      <rect>
        15 6 2 5</rect></_>
    <_>
      <rect>
        15 20 3 3</rect></_>
    <_>
      <rect>
        16 6 2 6</rect></_>
    <_>
      <rect>
        19 2 3 4</rect></_>
    <_>
      <rect>
        19 8 1 2</rect></_>
    <_>
      <rect>
        19 10 2 1</rect></_>
    <_>
      <rect>
        19 12 1 2</rect></_>
    <_>
      <rect>
        20 1 2 4</rect></_>
    <_>
      <rect>
        20 3 3 4</rect></_>
    <_>
      <rect>
        20 7 2 6</rect></_>
    <_>
      <rect>
        20 9 1 1</rect></_>
    <_>
      <rect>
        20 20 2 2</rect></_>
    <_>
      <rect>
        21 14 1 1</rect></_>
    <_>
      <rect>
        21 15 1 1</rect></_>
    <_>
      <rect>
        21 18 2 3</rect></_>
    <_>
      <rect>
        22 9 2 7</rect></_></features></cascade>
</opencv_storage>
