<?xml version="1.0"?>
<opencv_storage>
<cascade>
  <stageType>BOOST</stageType>
  <featureType>HAAR</featureType>
  <height>30</height>
  <width>30</width>
  <stageParams>
    <boostType>GAB</boostType>
    <minHitRate>9.9500000476837158e-01</minHitRate>
    <maxFalseAlarm>5.0000000000000000e-01</maxFalseAlarm>
    <weightTrimRate>9.4999999999999996e-01</weightTrimRate>
    <maxDepth>1</maxDepth>
    <maxWeakCount>100</maxWeakCount></stageParams>
  <featureParams>
    <maxCatCount>0</maxCatCount>
    <featSize>1</featSize>
    <mode>BASIC</mode></featureParams>
  <stageNum>15</stageNum>
  <stages>
    <!-- stage 0 -->
    <_>
      <maxWeakCount>13</maxWeakCount>
      <stageThreshold>-1.2340803146362305e+00</stageThreshold>
      <weakClassifiers>
        <_>
          <internalNodes>
            0 -1 203 5.4070979356765747e-02</internalNodes>
          <leafValues>
            -4.8612537980079651e-01 7.9502028226852417e-01</leafValues></_>
        <_>
          <internalNodes>
            0 -1 281 7.8215647954493761e-04</internalNodes>
          <leafValues>
            -2.2400182485580444e-01 6.7134410142898560e-01</leafValues></_>
        <_>
          <internalNodes>
            0 -1 253 2.4905223399400711e-03</internalNodes>
          <leafValues>
            -2.3958292603492737e-01 6.5558737516403198e-01</leafValues></_>
        <_>
          <internalNodes>
            0 -1 405 -1.4366485178470612e-02</internalNodes>
          <leafValues>
            4.7442221641540527e-01 -3.3954873681068420e-01</leafValues></_>
        <_>
          <internalNodes>
            0 -1 0 1.0538327507674694e-02</internalNodes>
          <leafValues>
            -3.5862693190574646e-01 3.8724821805953979e-01</leafValues></_>
        <_>
          <internalNodes>
            0 -1 132 -1.1630645021796227e-03</internalNodes>
          <leafValues>
            5.6505000591278076e-01 -2.2706851363182068e-01</leafValues></_>
        <_>
          <internalNodes>
            0 -1 194 3.5166757879778743e-04</internalNodes>
          <leafValues>
            -2.6165363192558289e-01 4.4343197345733643e-01</leafValues></_>
        <_>
          <internalNodes>
            0 -1 349 3.2679121941328049e-03</internalNodes>
          <leafValues>
            -2.7269661426544189e-01 3.7064668536186218e-01</leafValues></_>
        <_>
          <internalNodes>
            0 -1 102 1.7677040304988623e-03</internalNodes>
          <leafValues>
            -1.7906634509563446e-01 4.9456596374511719e-01</leafValues></_>
        <_>
          <internalNodes>
            0 -1 293 -3.3869658363983035e-04</internalNodes>
          <leafValues>
            3.1306698918342590e-01 -2.8657081723213196e-01</leafValues></_>
        <_>
          <internalNodes>
            0 -1 471 -3.1209031585603952e-03</internalNodes>
          <leafValues>
            2.6727187633514404e-01 -3.3910384774208069e-01</leafValues></_>
        <_>
          <internalNodes>
            0 -1 2 9.4549707137048244e-04</internalNodes>
          <leafValues>
            -3.2493069767951965e-01 2.8034469485282898e-01</leafValues></_>
        <_>
          <internalNodes>
            0 -1 273 3.5563838900998235e-04</internalNodes>
          <leafValues>
            -1.9931292533874512e-01 4.2411243915557861e-01</leafValues></_></weakClassifiers></_>
    <!-- stage 1 -->
    <_>
      <maxWeakCount>17</maxWeakCount>
      <stageThreshold>-1.2560800313949585e+00</stageThreshold>
      <weakClassifiers>
        <_>
          <internalNodes>
            0 -1 115 6.9869652390480042e-02</internalNodes>
          <leafValues>
            -4.0818712115287781e-01 6.7696475982666016e-01</leafValues></_>
        <_>
          <internalNodes>
            0 -1 390 3.1318876892328262e-02</internalNodes>
          <leafValues>
            -2.1924744546413422e-01 6.1710464954376221e-01</leafValues></_>
        <_>
          <internalNodes>
            0 -1 152 -1.9887294620275497e-03</internalNodes>
          <leafValues>
            4.8287045955657959e-01 -3.3761590719223022e-01</leafValues></_>
        <_>
          <internalNodes>
            0 -1 9 3.1252610497176647e-03</internalNodes>
          <leafValues>
            -4.4336706399917603e-01 2.5083473324775696e-01</leafValues></_>
        <_>
          <internalNodes>
            0 -1 198 7.3211169801652431e-03</internalNodes>
          <leafValues>
            -3.2796996831893921e-01 3.8727241754531860e-01</leafValues></_>
        <_>
          <internalNodes>
            0 -1 352 5.1764762029051781e-03</internalNodes>
          <leafValues>
            -1.3883368670940399e-01 6.1756849288940430e-01</leafValues></_>
        <_>
          <internalNodes>
            0 -1 8 1.0412576608359814e-02</internalNodes>
          <leafValues>
            -3.4493646025657654e-01 2.7648943662643433e-01</leafValues></_>
        <_>
          <internalNodes>
            0 -1 483 -1.0952204465866089e-03</internalNodes>
          <leafValues>
            2.2856108844280243e-01 -3.6110812425613403e-01</leafValues></_>
        <_>
          <internalNodes>
            0 -1 20 -4.2128702625632286e-03</internalNodes>
          <leafValues>
            4.2047658562660217e-01 -2.2424258291721344e-01</leafValues></_>
        <_>
          <internalNodes>
            0 -1 279 2.1832427009940147e-03</internalNodes>
          <leafValues>
            -1.5807352960109711e-01 4.6624258160591125e-01</leafValues></_>
        <_>
          <internalNodes>
            0 -1 154 2.0338983740657568e-03</internalNodes>
          <leafValues>
            -2.5269177556037903e-01 3.3102917671203613e-01</leafValues></_>
        <_>
          <internalNodes>
            0 -1 401 3.0774874612689018e-03</internalNodes>
          <leafValues>
            1.7965100705623627e-01 -4.6589061617851257e-01</leafValues></_>
        <_>
          <internalNodes>
            0 -1 373 3.9985962212085724e-03</internalNodes>
          <leafValues>
            -1.7266553640365601e-01 4.3262127041816711e-01</leafValues></_>
        <_>
          <internalNodes>
            0 -1 58 -1.6249912977218628e-01</internalNodes>
          <leafValues>
            4.0197846293449402e-01 -2.0657707750797272e-01</leafValues></_>
        <_>
          <internalNodes>
            0 -1 255 2.9161563143134117e-03</internalNodes>
          <leafValues>
            -1.1742057651281357e-01 5.6746429204940796e-01</leafValues></_>
        <_>
          <internalNodes>
            0 -1 278 3.8230330683290958e-03</internalNodes>
          <leafValues>
            -1.1367797106504440e-01 5.5159562826156616e-01</leafValues></_>
        <_>
          <internalNodes>
            0 -1 319 -4.3443200411275029e-04</internalNodes>
          <leafValues>
            3.2141631841659546e-01 -1.9929796457290649e-01</leafValues></_></weakClassifiers></_>
    <!-- stage 2 -->
    <_>
      <maxWeakCount>26</maxWeakCount>
      <stageThreshold>-1.1230669021606445e+00</stageThreshold>
      <weakClassifiers>
        <_>
          <internalNodes>
            0 -1 204 1.1047299206256866e-01</internalNodes>
          <leafValues>
            -1.1664074659347534e-01 7.4257427453994751e-01</leafValues></_>
        <_>
          <internalNodes>
            0 -1 309 2.1423767320811749e-03</internalNodes>
          <leafValues>
            -2.3345129191875458e-01 5.0588428974151611e-01</leafValues></_>
        <_>
          <internalNodes>
            0 -1 200 5.6438399478793144e-03</internalNodes>
          <leafValues>
            -2.2686696052551270e-01 4.6732354164123535e-01</leafValues></_>
        <_>
          <internalNodes>
            0 -1 11 3.6998083814978600e-03</internalNodes>
          <leafValues>
            -3.6570328474044800e-01 2.6679944992065430e-01</leafValues></_>
        <_>
          <internalNodes>
            0 -1 195 8.4067787975072861e-04</internalNodes>
          <leafValues>
            -2.5627040863037109e-01 3.7736949324607849e-01</leafValues></_>
        <_>
          <internalNodes>
            0 -1 111 1.8357861554250121e-03</internalNodes>
          <leafValues>
            -1.8414618074893951e-01 4.6466693282127380e-01</leafValues></_>
        <_>
          <internalNodes>
            0 -1 372 2.7052829973399639e-03</internalNodes>
          <leafValues>
            -1.5465141832828522e-01 4.8105502128601074e-01</leafValues></_>
        <_>
          <internalNodes>
            0 -1 199 -3.0675751622766256e-03</internalNodes>
          <leafValues>
            3.0780020356178284e-01 -2.3719367384910583e-01</leafValues></_>
        <_>
          <internalNodes>
            0 -1 219 7.1281841956079006e-03</internalNodes>
          <leafValues>
            -1.7696049809455872e-01 3.9236488938331604e-01</leafValues></_>
        <_>
          <internalNodes>
            0 -1 470 8.0760626588016748e-05</internalNodes>
          <leafValues>
            1.8838305771350861e-01 -3.7188518047332764e-01</leafValues></_>
        <_>
          <internalNodes>
            0 -1 438 -2.5513470172882080e-03</internalNodes>
          <leafValues>
            2.6159176230430603e-01 -2.9030236601829529e-01</leafValues></_>
        <_>
          <internalNodes>
            0 -1 106 2.6198269915767014e-04</internalNodes>
          <leafValues>
            -3.1415328383445740e-01 2.5798082351684570e-01</leafValues></_>
        <_>
          <internalNodes>
            0 -1 129 2.8953601140528917e-03</internalNodes>
          <leafValues>
            -1.9133131206035614e-01 3.3904898166656494e-01</leafValues></_>
        <_>
          <internalNodes>
            0 -1 72 3.0192983103916049e-04</internalNodes>
          <leafValues>
            -1.5749903023242950e-01 3.7300682067871094e-01</leafValues></_>
        <_>
          <internalNodes>
            0 -1 143 4.5191496610641479e-04</internalNodes>
          <leafValues>
            -1.7042255401611328e-01 3.4864497184753418e-01</leafValues></_>
        <_>
          <internalNodes>
            0 -1 14 6.2996363267302513e-03</internalNodes>
          <leafValues>
            1.3731910288333893e-01 -4.3864229321479797e-01</leafValues></_>
        <_>
          <internalNodes>
            0 -1 442 3.9856587536633015e-03</internalNodes>
          <leafValues>
            -1.8316395580768585e-01 3.5350462794303894e-01</leafValues></_>
        <_>
          <internalNodes>
            0 -1 92 8.6327514145523310e-04</internalNodes>
          <leafValues>
            -2.9025140404701233e-01 2.1620160341262817e-01</leafValues></_>
        <_>
          <internalNodes>
            0 -1 39 -1.0238446295261383e-02</internalNodes>
          <leafValues>
            2.2100335359573364e-01 -2.6158377528190613e-01</leafValues></_>
        <_>
          <internalNodes>
            0 -1 461 4.2240813490934670e-04</internalNodes>
          <leafValues>
            -2.4863375723361969e-01 2.3215432465076447e-01</leafValues></_>
        <_>
          <internalNodes>
            0 -1 36 1.2285070260986686e-03</internalNodes>
          <leafValues>
            -1.8923625349998474e-01 3.0216014385223389e-01</leafValues></_>
        <_>
          <internalNodes>
            0 -1 141 -3.6738689523190260e-03</internalNodes>
          <leafValues>
            -3.3458217978477478e-01 1.6448603570461273e-01</leafValues></_>
        <_>
          <internalNodes>
            0 -1 227 -1.1081661097705364e-02</internalNodes>
          <leafValues>
            -5.1648277044296265e-01 9.8081015050411224e-02</leafValues></_>
        <_>
          <internalNodes>
            0 -1 365 -5.4710479453206062e-03</internalNodes>
          <leafValues>
            5.4444462060928345e-01 -1.1454765498638153e-01</leafValues></_>
        <_>
          <internalNodes>
            0 -1 301 -2.2863427177071571e-02</internalNodes>
          <leafValues>
            -5.6007421016693115e-01 1.0577856749296188e-01</leafValues></_>
        <_>
          <internalNodes>
            0 -1 184 -1.1591921560466290e-02</internalNodes>
          <leafValues>
            6.0149621963500977e-01 -1.0393344610929489e-01</leafValues></_></weakClassifiers></_>
    <!-- stage 3 -->
    <_>
      <maxWeakCount>27</maxWeakCount>
      <stageThreshold>-1.0189642906188965e+00</stageThreshold>
      <weakClassifiers>
        <_>
          <internalNodes>
            0 -1 205 1.0634900629520416e-01</internalNodes>
          <leafValues>
            -1.4151827991008759e-01 6.4360076189041138e-01</leafValues></_>
        <_>
          <internalNodes>
            0 -1 288 4.7523103421553969e-04</internalNodes>
          <leafValues>
            -2.3842671513557434e-01 4.5099440217018127e-01</leafValues></_>
        <_>
          <internalNodes>
            0 -1 433 -5.9105176478624344e-03</internalNodes>
          <leafValues>
            3.6260515451431274e-01 -2.3105476796627045e-01</leafValues></_>
        <_>
          <internalNodes>
            0 -1 1 1.7880296334624290e-02</internalNodes>
          <leafValues>
            -3.1002584099769592e-01 2.7828684449195862e-01</leafValues></_>
        <_>
          <internalNodes>
            0 -1 243 6.6223293542861938e-03</internalNodes>
          <leafValues>
            -2.5912630558013916e-01 3.6860504746437073e-01</leafValues></_>
        <_>
          <internalNodes>
            0 -1 208 5.2678794600069523e-03</internalNodes>
          <leafValues>
            -2.7852347493171692e-01 2.8081834316253662e-01</leafValues></_>
        <_>
          <internalNodes>
            0 -1 476 -2.7876719832420349e-03</internalNodes>
          <leafValues>
            1.9594177603721619e-01 -3.4761780500411987e-01</leafValues></_>
        <_>
          <internalNodes>
            0 -1 90 -1.4104540459811687e-03</internalNodes>
          <leafValues>
            4.7222715616226196e-01 -1.4601893723011017e-01</leafValues></_>
        <_>
          <internalNodes>
            0 -1 50 3.0778357759118080e-03</internalNodes>
          <leafValues>
            -9.7782015800476074e-02 6.8144553899765015e-01</leafValues></_>
        <_>
          <internalNodes>
            0 -1 348 5.8426172472536564e-04</internalNodes>
          <leafValues>
            -2.3224803805351257e-01 2.8287291526794434e-01</leafValues></_>
        <_>
          <internalNodes>
            0 -1 402 1.7600424587726593e-02</internalNodes>
          <leafValues>
            -1.8066841363906860e-01 4.3297159671783447e-01</leafValues></_>
        <_>
          <internalNodes>
            0 -1 101 -3.3939350396394730e-04</internalNodes>
          <leafValues>
            2.3292396962642670e-01 -2.9777154326438904e-01</leafValues></_>
        <_>
          <internalNodes>
            0 -1 457 3.6426316946744919e-03</internalNodes>
          <leafValues>
            -1.7362211644649506e-01 4.0530151128768921e-01</leafValues></_>
        <_>
          <internalNodes>
            0 -1 389 2.0923546981066465e-04</internalNodes>
          <leafValues>
            -2.6230788230895996e-01 2.5882813334465027e-01</leafValues></_>
        <_>
          <internalNodes>
            0 -1 108 2.8874971903860569e-03</internalNodes>
          <leafValues>
            -1.9039516150951385e-01 3.4793335199356079e-01</leafValues></_>
        <_>
          <internalNodes>
            0 -1 414 -1.9945506937801838e-03</internalNodes>
          <leafValues>
            -4.5665365457534790e-01 1.4704388380050659e-01</leafValues></_>
        <_>
          <internalNodes>
            0 -1 232 -1.3144148979336023e-03</internalNodes>
          <leafValues>
            3.4173366427421570e-01 -1.7838086187839508e-01</leafValues></_>
        <_>
          <internalNodes>
            0 -1 67 8.3085913211107254e-03</internalNodes>
          <leafValues>
            1.3123555481433868e-01 -4.4946694374084473e-01</leafValues></_>
        <_>
          <internalNodes>
            0 -1 308 2.0463336259126663e-03</internalNodes>
          <leafValues>
            -1.2178457528352737e-01 5.6440472602844238e-01</leafValues></_>
        <_>
          <internalNodes>
            0 -1 236 -2.3383782245218754e-03</internalNodes>
          <leafValues>
            -6.4644640684127808e-01 1.0653737187385559e-01</leafValues></_>
        <_>
          <internalNodes>
            0 -1 385 6.2500505009666085e-04</internalNodes>
          <leafValues>
            -2.3865012824535370e-01 2.6242643594741821e-01</leafValues></_>
        <_>
          <internalNodes>
            0 -1 123 1.4681629836559296e-02</internalNodes>
          <leafValues>
            -1.8638169765472412e-01 3.6911696195602417e-01</leafValues></_>
        <_>
          <internalNodes>
            0 -1 266 -6.7641411442309618e-04</internalNodes>
          <leafValues>
            -3.9607584476470947e-01 1.6202940046787262e-01</leafValues></_>
        <_>
          <internalNodes>
            0 -1 212 -5.9606041759252548e-03</internalNodes>
          <leafValues>
            -5.4949796199798584e-01 1.0471055656671524e-01</leafValues></_>
        <_>
          <internalNodes>
            0 -1 163 -9.7507862374186516e-03</internalNodes>
          <leafValues>
            -4.5763951539993286e-01 1.3415145874023438e-01</leafValues></_>
        <_>
          <internalNodes>
            0 -1 321 6.3404478132724762e-03</internalNodes>
          <leafValues>
            -1.8580232560634613e-01 3.2260918617248535e-01</leafValues></_>
        <_>
          <internalNodes>
            0 -1 477 2.0301444455981255e-03</internalNodes>
          <leafValues>
            -1.9130344688892365e-01 2.9394838213920593e-01</leafValues></_></weakClassifiers></_>
    <!-- stage 4 -->
    <_>
      <maxWeakCount>31</maxWeakCount>
      <stageThreshold>-1.0082416534423828e+00</stageThreshold>
      <weakClassifiers>
        <_>
          <internalNodes>
            0 -1 375 4.3158713728189468e-02</internalNodes>
          <leafValues>
            4.9546405673027039e-02 6.5430152416229248e-01</leafValues></_>
        <_>
          <internalNodes>
            0 -1 324 -2.1138144657015800e-03</internalNodes>
          <leafValues>
            4.2210105061531067e-01 -2.1294085681438446e-01</leafValues></_>
        <_>
          <internalNodes>
            0 -1 258 -2.9250823426991701e-03</internalNodes>
          <leafValues>
            4.1581395268440247e-01 -1.7753645777702332e-01</leafValues></_>
        <_>
          <internalNodes>
            0 -1 230 -3.0845266301184893e-03</internalNodes>
          <leafValues>
            4.0595760941505432e-01 -2.1580752730369568e-01</leafValues></_>
        <_>
          <internalNodes>
            0 -1 247 3.5390651319175959e-03</internalNodes>
          <leafValues>
            -4.0061181783676147e-01 1.9159337878227234e-01</leafValues></_>
        <_>
          <internalNodes>
            0 -1 81 -1.4697668375447392e-03</internalNodes>
          <leafValues>
            3.3650845289230347e-01 -2.0253509283065796e-01</leafValues></_>
        <_>
          <internalNodes>
            0 -1 455 -2.0972094498574734e-03</internalNodes>
          <leafValues>
            1.7826411128044128e-01 -3.5862851142883301e-01</leafValues></_>
        <_>
          <internalNodes>
            0 -1 105 3.6504457239061594e-03</internalNodes>
          <leafValues>
            -1.5271733701229095e-01 4.0220609307289124e-01</leafValues></_>
        <_>
          <internalNodes>
            0 -1 312 1.7745874822139740e-02</internalNodes>
          <leafValues>
            -1.0957936942577362e-01 5.4293739795684814e-01</leafValues></_>
        <_>
          <internalNodes>
            0 -1 363 4.9110678955912590e-03</internalNodes>
          <leafValues>
            -8.7837509810924530e-02 6.5503323078155518e-01</leafValues></_>
        <_>
          <internalNodes>
            0 -1 244 3.8994369097054005e-03</internalNodes>
          <leafValues>
            -1.2282134592533112e-01 4.7723147273063660e-01</leafValues></_>
        <_>
          <internalNodes>
            0 -1 440 -6.4584054052829742e-03</internalNodes>
          <leafValues>
            -2.8637209534645081e-01 2.0677684247493744e-01</leafValues></_>
        <_>
          <internalNodes>
            0 -1 475 1.1214069090783596e-03</internalNodes>
          <leafValues>
            -1.9903635978698730e-01 3.0167233943939209e-01</leafValues></_>
        <_>
          <internalNodes>
            0 -1 12 2.6463181711733341e-04</internalNodes>
          <leafValues>
            -2.4424946308135986e-01 2.1665515005588531e-01</leafValues></_>
        <_>
          <internalNodes>
            0 -1 122 -5.1188985817134380e-03</internalNodes>
          <leafValues>
            -6.1704516410827637e-01 7.9840742051601410e-02</leafValues></_>
        <_>
          <internalNodes>
            0 -1 176 -1.6540212556719780e-02</internalNodes>
          <leafValues>
            -8.4361177682876587e-01 4.7950044274330139e-02</leafValues></_>
        <_>
          <internalNodes>
            0 -1 273 3.0450033955276012e-04</internalNodes>
          <leafValues>
            -1.8783931434154510e-01 2.5883391499519348e-01</leafValues></_>
        <_>
          <internalNodes>
            0 -1 325 1.5863769222050905e-03</internalNodes>
          <leafValues>
            -3.0050507187843323e-01 1.6415667533874512e-01</leafValues></_>
        <_>
          <internalNodes>
            0 -1 224 -6.0776427388191223e-02</internalNodes>
          <leafValues>
            -7.8167563676834106e-01 5.5873539298772812e-02</leafValues></_>
        <_>
          <internalNodes>
            0 -1 156 -5.1314581651240587e-04</internalNodes>
          <leafValues>
            2.8846728801727295e-01 -1.7376096546649933e-01</leafValues></_>
        <_>
          <internalNodes>
            0 -1 260 7.0433579385280609e-03</internalNodes>
          <leafValues>
            7.3926694691181183e-02 -7.2302204370498657e-01</leafValues></_>
        <_>
          <internalNodes>
            0 -1 88 2.6969243772327900e-03</internalNodes>
          <leafValues>
            -1.7201203107833862e-01 2.7933350205421448e-01</leafValues></_>
        <_>
          <internalNodes>
            0 -1 263 1.0665247682482004e-03</internalNodes>
          <leafValues>
            1.0301184654235840e-01 -4.3865877389907837e-01</leafValues></_>
        <_>
          <internalNodes>
            0 -1 337 -1.0087902192026377e-03</internalNodes>
          <leafValues>
            -4.7353002429008484e-01 8.9322075247764587e-02</leafValues></_>
        <_>
          <internalNodes>
            0 -1 352 4.1158320382237434e-03</internalNodes>
          <leafValues>
            -1.4037559926509857e-01 3.0228841304779053e-01</leafValues></_>
        <_>
          <internalNodes>
            0 -1 351 -2.4766726419329643e-03</internalNodes>
          <leafValues>
            4.7382920980453491e-01 -9.9461011588573456e-02</leafValues></_>
        <_>
          <internalNodes>
            0 -1 264 -2.1346593275666237e-03</internalNodes>
          <leafValues>
            -4.8448085784912109e-01 1.0556174069643021e-01</leafValues></_>
        <_>
          <internalNodes>
            0 -1 61 -1.2409577611833811e-03</internalNodes>
          <leafValues>
            -6.2580126523971558e-01 7.0174552500247955e-02</leafValues></_>
        <_>
          <internalNodes>
            0 -1 44 1.1781486682593822e-03</internalNodes>
          <leafValues>
            -1.5584696829319000e-01 3.0510985851287842e-01</leafValues></_>
        <_>
          <internalNodes>
            0 -1 394 -2.7491753920912743e-02</internalNodes>
          <leafValues>
            4.3568986654281616e-01 -1.0321994125843048e-01</leafValues></_>
        <_>
          <internalNodes>
            0 -1 85 1.2114948593080044e-02</internalNodes>
          <leafValues>
            -1.2878508865833282e-01 3.7978151440620422e-01</leafValues></_></weakClassifiers></_>
    <!-- stage 5 -->
    <_>
      <maxWeakCount>30</maxWeakCount>
      <stageThreshold>-9.7840881347656250e-01</stageThreshold>
      <weakClassifiers>
        <_>
          <internalNodes>
            0 -1 300 -1.4301987830549479e-03</internalNodes>
          <leafValues>
            6.2466490268707275e-01 -2.6490066200494766e-02</leafValues></_>
        <_>
          <internalNodes>
            0 -1 231 -1.0136379860341549e-03</internalNodes>
          <leafValues>
            5.0778132677078247e-01 -1.8022374808788300e-01</leafValues></_>
        <_>
          <internalNodes>
            0 -1 145 1.5147119760513306e-02</internalNodes>
          <leafValues>
            -3.3895590901374817e-01 2.7041712403297424e-01</leafValues></_>
        <_>
          <internalNodes>
            0 -1 268 -1.2041217647492886e-02</internalNodes>
          <leafValues>
            2.4716775119304657e-01 -3.4131804108619690e-01</leafValues></_>
        <_>
          <internalNodes>
            0 -1 137 1.2337235966697335e-03</internalNodes>
          <leafValues>
            -2.9907569289207458e-01 2.5332248210906982e-01</leafValues></_>
        <_>
          <internalNodes>
            0 -1 485 -1.2282871175557375e-03</internalNodes>
          <leafValues>
            2.6537299156188965e-01 -2.8877362608909607e-01</leafValues></_>
        <_>
          <internalNodes>
            0 -1 381 2.6785829104483128e-03</internalNodes>
          <leafValues>
            -1.7005348205566406e-01 3.9764553308486938e-01</leafValues></_>
        <_>
          <internalNodes>
            0 -1 330 1.8654218874871731e-03</internalNodes>
          <leafValues>
            -1.7949540913105011e-01 3.6462971568107605e-01</leafValues></_>
        <_>
          <internalNodes>
            0 -1 110 -6.4857257530093193e-03</internalNodes>
          <leafValues>
            3.8483360409736633e-01 -1.5488624572753906e-01</leafValues></_>
        <_>
          <internalNodes>
            0 -1 53 -6.4691458828747272e-04</internalNodes>
          <leafValues>
            3.2917478680610657e-01 -1.8751746416091919e-01</leafValues></_>
        <_>
          <internalNodes>
            0 -1 437 -1.1911831796169281e-02</internalNodes>
          <leafValues>
            2.4950118362903595e-01 -2.4856653809547424e-01</leafValues></_>
        <_>
          <internalNodes>
            0 -1 91 2.5217225775122643e-03</internalNodes>
          <leafValues>
            -2.8142130374908447e-01 2.0670728385448456e-01</leafValues></_>
        <_>
          <internalNodes>
            0 -1 458 -2.8796913102269173e-04</internalNodes>
          <leafValues>
            2.6423040032386780e-01 -2.0008955895900726e-01</leafValues></_>
        <_>
          <internalNodes>
            0 -1 19 1.4154098462313414e-03</internalNodes>
          <leafValues>
            -2.0744556188583374e-01 2.4574089050292969e-01</leafValues></_>
        <_>
          <internalNodes>
            0 -1 276 -1.0820031457114965e-04</internalNodes>
          <leafValues>
            1.7682871222496033e-01 -2.7141052484512329e-01</leafValues></_>
        <_>
          <internalNodes>
            0 -1 56 -1.4523135032504797e-03</internalNodes>
          <leafValues>
            3.6441370844841003e-01 -1.2985055148601532e-01</leafValues></_>
        <_>
          <internalNodes>
            0 -1 16 -2.3724923375993967e-03</internalNodes>
          <leafValues>
            1.9353683292865753e-01 -2.6427781581878662e-01</leafValues></_>
        <_>
          <internalNodes>
            0 -1 95 -1.3138185022398829e-03</internalNodes>
          <leafValues>
            3.0941256880760193e-01 -1.5594696998596191e-01</leafValues></_>
        <_>
          <internalNodes>
            0 -1 445 3.8234778912737966e-04</internalNodes>
          <leafValues>
            -1.7306211590766907e-01 2.8421527147293091e-01</leafValues></_>
        <_>
          <internalNodes>
            0 -1 193 -2.0771078765392303e-02</internalNodes>
          <leafValues>
            -5.9210336208343506e-01 9.1360479593276978e-02</leafValues></_>
        <_>
          <internalNodes>
            0 -1 382 -4.3318234384059906e-03</internalNodes>
          <leafValues>
            -5.2507197856903076e-01 8.2939282059669495e-02</leafValues></_>
        <_>
          <internalNodes>
            0 -1 226 3.4225252456963062e-03</internalNodes>
          <leafValues>
            -1.3634964823722839e-01 3.9291709661483765e-01</leafValues></_>
        <_>
          <internalNodes>
            0 -1 228 -2.9308372177183628e-04</internalNodes>
          <leafValues>
            2.5649458169937134e-01 -1.9134716689586639e-01</leafValues></_>
        <_>
          <internalNodes>
            0 -1 84 7.1825226768851280e-04</internalNodes>
          <leafValues>
            1.7712652683258057e-01 -2.8114211559295654e-01</leafValues></_>
        <_>
          <internalNodes>
            0 -1 159 9.4882354140281677e-02</internalNodes>
          <leafValues>
            5.8636941015720367e-02 -7.4996978044509888e-01</leafValues></_>
        <_>
          <internalNodes>
            0 -1 220 -8.6878947913646698e-03</internalNodes>
          <leafValues>
            -5.0048339366912842e-01 9.9736101925373077e-02</leafValues></_>
        <_>
          <internalNodes>
            0 -1 167 -9.4314534217119217e-03</internalNodes>
          <leafValues>
            -6.1171901226043701e-01 7.8916005790233612e-02</leafValues></_>
        <_>
          <internalNodes>
            0 -1 33 -1.5029659494757652e-02</internalNodes>
          <leafValues>
            1.9702179729938507e-01 -2.4215625226497650e-01</leafValues></_>
        <_>
          <internalNodes>
            0 -1 258 5.7396711781620979e-03</internalNodes>
          <leafValues>
            -8.8443920016288757e-02 5.7843178510665894e-01</leafValues></_>
        <_>
          <internalNodes>
            0 -1 343 -1.3693470973521471e-03</internalNodes>
          <leafValues>
            2.7775663137435913e-01 -1.7723359167575836e-01</leafValues></_></weakClassifiers></_>
    <!-- stage 6 -->
    <_>
      <maxWeakCount>35</maxWeakCount>
      <stageThreshold>-8.9359843730926514e-01</stageThreshold>
      <weakClassifiers>
        <_>
          <internalNodes>
            0 -1 175 1.8323510885238647e-03</internalNodes>
          <leafValues>
            -1.0928961448371410e-02 5.6928837299346924e-01</leafValues></_>
        <_>
          <internalNodes>
            0 -1 450 3.0178651213645935e-03</internalNodes>
          <leafValues>
            -2.1257822215557098e-01 3.8903558254241943e-01</leafValues></_>
        <_>
          <internalNodes>
            0 -1 246 5.3589586168527603e-03</internalNodes>
          <leafValues>
            -2.0938287675380707e-01 3.4243780374526978e-01</leafValues></_>
        <_>
          <internalNodes>
            0 -1 28 2.2072263527661562e-03</internalNodes>
          <leafValues>
            -2.7898868918418884e-01 2.1584245562553406e-01</leafValues></_>
        <_>
          <internalNodes>
            0 -1 5 7.1358457207679749e-03</internalNodes>
          <leafValues>
            -3.2370990514755249e-01 1.9931101799011230e-01</leafValues></_>
        <_>
          <internalNodes>
            0 -1 347 1.8852096982300282e-03</internalNodes>
          <leafValues>
            -3.0121129751205444e-01 2.0074258744716644e-01</leafValues></_>
        <_>
          <internalNodes>
            0 -1 420 -1.4910243451595306e-02</internalNodes>
          <leafValues>
            5.3593218326568604e-01 -1.2741526961326599e-01</leafValues></_>
        <_>
          <internalNodes>
            0 -1 397 3.3819604665040970e-02</internalNodes>
          <leafValues>
            -1.4644518494606018e-01 3.9124089479446411e-01</leafValues></_>
        <_>
          <internalNodes>
            0 -1 482 -2.4310112348757684e-04</internalNodes>
          <leafValues>
            2.4721431732177734e-01 -2.1418009698390961e-01</leafValues></_>
        <_>
          <internalNodes>
            0 -1 34 2.0364071242511272e-03</internalNodes>
          <leafValues>
            -1.6769611835479736e-01 3.2696688175201416e-01</leafValues></_>
        <_>
          <internalNodes>
            0 -1 213 -9.3602691777050495e-04</internalNodes>
          <leafValues>
            -3.6786320805549622e-01 1.5991927683353424e-01</leafValues></_>
        <_>
          <internalNodes>
            0 -1 257 -1.7578045371919870e-03</internalNodes>
          <leafValues>
            3.6346712708473206e-01 -1.4500105381011963e-01</leafValues></_>
        <_>
          <internalNodes>
            0 -1 222 -4.2193634435534477e-03</internalNodes>
          <leafValues>
            3.5319358110427856e-01 -1.4967794716358185e-01</leafValues></_>
        <_>
          <internalNodes>
            0 -1 252 1.1736867018043995e-03</internalNodes>
          <leafValues>
            -2.1290823817253113e-01 2.1182876825332642e-01</leafValues></_>
        <_>
          <internalNodes>
            0 -1 254 3.2459139823913574e-02</internalNodes>
          <leafValues>
            6.4874790608882904e-02 -6.1983960866928101e-01</leafValues></_>
        <_>
          <internalNodes>
            0 -1 64 4.9423919990658760e-03</internalNodes>
          <leafValues>
            -1.3549575209617615e-01 3.5925555229187012e-01</leafValues></_>
        <_>
          <internalNodes>
            0 -1 210 2.4752806872129440e-02</internalNodes>
          <leafValues>
            6.5369039773941040e-02 -7.3669850826263428e-01</leafValues></_>
        <_>
          <internalNodes>
            0 -1 316 -3.1322566792368889e-03</internalNodes>
          <leafValues>
            2.2721904516220093e-01 -2.0106050372123718e-01</leafValues></_>
        <_>
          <internalNodes>
            0 -1 315 -1.0447060922160745e-03</internalNodes>
          <leafValues>
            -5.4283887147903442e-01 8.2519620656967163e-02</leafValues></_>
        <_>
          <internalNodes>
            0 -1 166 5.7535144151188433e-05</internalNodes>
          <leafValues>
            1.8519420921802521e-01 -2.2349010407924652e-01</leafValues></_>
        <_>
          <internalNodes>
            0 -1 42 -2.9222099110484123e-03</internalNodes>
          <leafValues>
            2.8355774283409119e-01 -1.4781901240348816e-01</leafValues></_>
        <_>
          <internalNodes>
            0 -1 479 -5.2182865329086781e-04</internalNodes>
          <leafValues>
            2.7674025297164917e-01 -1.3860738277435303e-01</leafValues></_>
        <_>
          <internalNodes>
            0 -1 431 -7.0356917567551136e-03</internalNodes>
          <leafValues>
            2.1121007204055786e-01 -1.7950780689716339e-01</leafValues></_>
        <_>
          <internalNodes>
            0 -1 192 -7.9217762686312199e-04</internalNodes>
          <leafValues>
            2.0881180465221405e-01 -1.8902377784252167e-01</leafValues></_>
        <_>
          <internalNodes>
            0 -1 484 1.2141632614657283e-03</internalNodes>
          <leafValues>
            7.4175439774990082e-02 -5.7362675666809082e-01</leafValues></_>
        <_>
          <internalNodes>
            0 -1 447 8.0375913530588150e-03</internalNodes>
          <leafValues>
            -8.2852534949779510e-02 5.2419257164001465e-01</leafValues></_>
        <_>
          <internalNodes>
            0 -1 287 1.1224005371332169e-02</internalNodes>
          <leafValues>
            -7.2342254221439362e-02 5.0754094123840332e-01</leafValues></_>
        <_>
          <internalNodes>
            0 -1 233 2.1075098775327206e-03</internalNodes>
          <leafValues>
            -1.3071906566619873e-01 3.2870334386825562e-01</leafValues></_>
        <_>
          <internalNodes>
            0 -1 297 -1.1051707901060581e-02</internalNodes>
          <leafValues>
            -5.5757278203964233e-01 7.7640078961849213e-02</leafValues></_>
        <_>
          <internalNodes>
            0 -1 425 3.0465542804449797e-03</internalNodes>
          <leafValues>
            6.7752540111541748e-02 -5.6290411949157715e-01</leafValues></_>
        <_>
          <internalNodes>
            0 -1 451 -2.9032912570983171e-03</internalNodes>
          <leafValues>
            -4.2333012819290161e-01 9.2457465827465057e-02</leafValues></_>
        <_>
          <internalNodes>
            0 -1 299 2.9387187212705612e-02</internalNodes>
          <leafValues>
            7.8899033367633820e-02 -4.8953753709793091e-01</leafValues></_>
        <_>
          <internalNodes>
            0 -1 446 -1.3850134564563632e-04</internalNodes>
          <leafValues>
            2.4075436592102051e-01 -1.8936230242252350e-01</leafValues></_>
        <_>
          <internalNodes>
            0 -1 322 -5.1448200829327106e-03</internalNodes>
          <leafValues>
            -7.1327590942382813e-01 5.4858863353729248e-02</leafValues></_>
        <_>
          <internalNodes>
            0 -1 169 -3.7537218304350972e-04</internalNodes>
          <leafValues>
            2.0770233869552612e-01 -1.9659695029258728e-01</leafValues></_></weakClassifiers></_>
    <!-- stage 7 -->
    <_>
      <maxWeakCount>34</maxWeakCount>
      <stageThreshold>-8.0377310514450073e-01</stageThreshold>
      <weakClassifiers>
        <_>
          <internalNodes>
            0 -1 206 9.1560333967208862e-02</internalNodes>
          <leafValues>
            -9.6525093540549278e-03 5.4687500000000000e-01</leafValues></_>
        <_>
          <internalNodes>
            0 -1 300 -2.5769597850739956e-03</internalNodes>
          <leafValues>
            3.9351019263267517e-01 -2.2369375824928284e-01</leafValues></_>
        <_>
          <internalNodes>
            0 -1 250 1.6591761261224747e-02</internalNodes>
          <leafValues>
            -1.3581261038780212e-01 4.9931293725967407e-01</leafValues></_>
        <_>
          <internalNodes>
            0 -1 179 2.3086672648787498e-02</internalNodes>
          <leafValues>
            -1.0738617926836014e-01 6.9455218315124512e-01</leafValues></_>
        <_>
          <internalNodes>
            0 -1 182 3.1247783917933702e-03</internalNodes>
          <leafValues>
            -1.3688291609287262e-01 3.8030177354812622e-01</leafValues></_>
        <_>
          <internalNodes>
            0 -1 51 6.6015655174851418e-03</internalNodes>
          <leafValues>
            -1.6058260202407837e-01 2.9259881377220154e-01</leafValues></_>
        <_>
          <internalNodes>
            0 -1 423 1.2556960806250572e-02</internalNodes>
          <leafValues>
            -1.0871434211730957e-01 5.3265279531478882e-01</leafValues></_>
        <_>
          <internalNodes>
            0 -1 18 3.0695185996592045e-03</internalNodes>
          <leafValues>
            -1.8275269865989685e-01 2.2485516965389252e-01</leafValues></_>
        <_>
          <internalNodes>
            0 -1 481 -2.5269393809139729e-03</internalNodes>
          <leafValues>
            1.5452517569065094e-01 -2.5307297706604004e-01</leafValues></_>
        <_>
          <internalNodes>
            0 -1 104 1.6231655608862638e-03</internalNodes>
          <leafValues>
            -1.2427674233913422e-01 3.3879619836807251e-01</leafValues></_>
        <_>
          <internalNodes>
            0 -1 412 1.9727107137441635e-03</internalNodes>
          <leafValues>
            -1.9242255389690399e-01 2.5863435864448547e-01</leafValues></_>
        <_>
          <internalNodes>
            0 -1 411 2.3863678798079491e-03</internalNodes>
          <leafValues>
            -1.8882542848587036e-01 2.0788934826850891e-01</leafValues></_>
        <_>
          <internalNodes>
            0 -1 426 2.0768714603036642e-04</internalNodes>
          <leafValues>
            -2.1510726213455200e-01 1.7226254940032959e-01</leafValues></_>
        <_>
          <internalNodes>
            0 -1 157 -5.1271822303533554e-04</internalNodes>
          <leafValues>
            2.5335368514060974e-01 -1.5420094132423401e-01</leafValues></_>
        <_>
          <internalNodes>
            0 -1 191 3.5700421780347824e-02</internalNodes>
          <leafValues>
            5.4140422493219376e-02 -7.1999675035476685e-01</leafValues></_>
        <_>
          <internalNodes>
            0 -1 127 -3.8499766960740089e-03</internalNodes>
          <leafValues>
            -3.2108622789382935e-01 1.2885570526123047e-01</leafValues></_>
        <_>
          <internalNodes>
            0 -1 456 1.1360548669472337e-03</internalNodes>
          <leafValues>
            -1.8733458220958710e-01 2.3028890788555145e-01</leafValues></_>
        <_>
          <internalNodes>
            0 -1 68 -3.6234044819138944e-04</internalNodes>
          <leafValues>
            2.1138776838779449e-01 -1.9031846523284912e-01</leafValues></_>
        <_>
          <internalNodes>
            0 -1 342 -3.8051887531764805e-04</internalNodes>
          <leafValues>
            -3.2621410489082336e-01 1.3557688891887665e-01</leafValues></_>
        <_>
          <internalNodes>
            0 -1 13 1.7134458757936954e-03</internalNodes>
          <leafValues>
            -2.0862758159637451e-01 2.1183556318283081e-01</leafValues></_>
        <_>
          <internalNodes>
            0 -1 367 -3.3276022877544165e-03</internalNodes>
          <leafValues>
            -5.0906807184219360e-01 8.1372067332267761e-02</leafValues></_>
        <_>
          <internalNodes>
            0 -1 350 -4.3207453563809395e-04</internalNodes>
          <leafValues>
            2.2935271263122559e-01 -2.1127623319625854e-01</leafValues></_>
        <_>
          <internalNodes>
            0 -1 332 -1.1434454936534166e-03</internalNodes>
          <leafValues>
            3.0509662628173828e-01 -1.4523050189018250e-01</leafValues></_>
        <_>
          <internalNodes>
            0 -1 103 1.3191612670198083e-03</internalNodes>
          <leafValues>
            -2.0065395534038544e-01 2.0432506501674652e-01</leafValues></_>
        <_>
          <internalNodes>
            0 -1 234 7.3604388162493706e-03</internalNodes>
          <leafValues>
            -9.9504381418228149e-02 4.1982573270797729e-01</leafValues></_>
        <_>
          <internalNodes>
            0 -1 334 -1.6692425124347210e-03</internalNodes>
          <leafValues>
            4.5350548624992371e-01 -9.1298393905162811e-02</leafValues></_>
        <_>
          <internalNodes>
            0 -1 158 5.5618188343942165e-04</internalNodes>
          <leafValues>
            -1.6962997615337372e-01 2.6100793480873108e-01</leafValues></_>
        <_>
          <internalNodes>
            0 -1 117 7.3720915243029594e-03</internalNodes>
          <leafValues>
            8.1760697066783905e-02 -5.1772880554199219e-01</leafValues></_>
        <_>
          <internalNodes>
            0 -1 168 -3.2668589847162366e-04</internalNodes>
          <leafValues>
            2.2526805102825165e-01 -1.6805443167686462e-01</leafValues></_>
        <_>
          <internalNodes>
            0 -1 377 9.1652432456612587e-04</internalNodes>
          <leafValues>
            -1.6184332966804504e-01 2.4605077505111694e-01</leafValues></_>
        <_>
          <internalNodes>
            0 -1 275 1.5593238640576601e-03</internalNodes>
          <leafValues>
            -3.5797262191772461e-01 1.1354301124811172e-01</leafValues></_>
        <_>
          <internalNodes>
            0 -1 355 -2.6346773374825716e-03</internalNodes>
          <leafValues>
            -5.3979766368865967e-01 6.4824245870113373e-02</leafValues></_>
        <_>
          <internalNodes>
            0 -1 452 -4.0311395423486829e-04</internalNodes>
          <leafValues>
            1.7337007820606232e-01 -2.1772314608097076e-01</leafValues></_>
        <_>
          <internalNodes>
            0 -1 180 4.1897129267454147e-03</internalNodes>
          <leafValues>
            4.8411123454570770e-02 -8.1621044874191284e-01</leafValues></_></weakClassifiers></_>
    <!-- stage 8 -->
    <_>
      <maxWeakCount>42</maxWeakCount>
      <stageThreshold>-1.0054469108581543e+00</stageThreshold>
      <weakClassifiers>
        <_>
          <internalNodes>
            0 -1 290 5.4906238801777363e-04</internalNodes>
          <leafValues>
            1.0363761335611343e-01 6.0257440805435181e-01</leafValues></_>
        <_>
          <internalNodes>
            0 -1 391 4.7366321086883545e-02</internalNodes>
          <leafValues>
            -1.6080620884895325e-01 3.8617107272148132e-01</leafValues></_>
        <_>
          <internalNodes>
            0 -1 70 3.0728504061698914e-03</internalNodes>
          <leafValues>
            -2.3922863602638245e-01 2.7802804112434387e-01</leafValues></_>
        <_>
          <internalNodes>
            0 -1 388 4.6335407532751560e-03</internalNodes>
          <leafValues>
            -1.8191531300544739e-01 3.9149802923202515e-01</leafValues></_>
        <_>
          <internalNodes>
            0 -1 217 7.6664518564939499e-03</internalNodes>
          <leafValues>
            -3.3750331401824951e-01 2.0962433516979218e-01</leafValues></_>
        <_>
          <internalNodes>
            0 -1 487 -4.4518680078908801e-04</internalNodes>
          <leafValues>
            1.6682808101177216e-01 -3.4031438827514648e-01</leafValues></_>
        <_>
          <internalNodes>
            0 -1 305 6.6736480221152306e-03</internalNodes>
          <leafValues>
            -9.4394452869892120e-02 5.5528473854064941e-01</leafValues></_>
        <_>
          <internalNodes>
            0 -1 187 4.4467528350651264e-03</internalNodes>
          <leafValues>
            -1.3667650520801544e-01 4.3992260098457336e-01</leafValues></_>
        <_>
          <internalNodes>
            0 -1 270 3.3076868858188391e-03</internalNodes>
          <leafValues>
            -1.8215827643871307e-01 2.9572606086730957e-01</leafValues></_>
        <_>
          <internalNodes>
            0 -1 369 1.5461486764252186e-03</internalNodes>
          <leafValues>
            -2.0502915978431702e-01 2.3712936043739319e-01</leafValues></_>
        <_>
          <internalNodes>
            0 -1 109 9.5275614876300097e-04</internalNodes>
          <leafValues>
            -1.9043883681297302e-01 2.6757392287254333e-01</leafValues></_>
        <_>
          <internalNodes>
            0 -1 393 -2.4476610124111176e-03</internalNodes>
          <leafValues>
            1.4588025212287903e-01 -3.3382698893547058e-01</leafValues></_>
        <_>
          <internalNodes>
            0 -1 392 -2.9267609119415283e-02</internalNodes>
          <leafValues>
            6.6098862886428833e-01 -6.7648090422153473e-02</leafValues></_>
        <_>
          <internalNodes>
            0 -1 40 -3.7346568424254656e-03</internalNodes>
          <leafValues>
            -5.0546884536743164e-01 9.2555522918701172e-02</leafValues></_>
        <_>
          <internalNodes>
            0 -1 346 -6.6503770649433136e-03</internalNodes>
          <leafValues>
            5.4624855518341064e-01 -8.5754990577697754e-02</leafValues></_>
        <_>
          <internalNodes>
            0 -1 107 -1.0522902011871338e-02</internalNodes>
          <leafValues>
            -3.4196341037750244e-01 1.1944524943828583e-01</leafValues></_>
        <_>
          <internalNodes>
            0 -1 298 -3.5633430816233158e-03</internalNodes>
          <leafValues>
            -3.9861202239990234e-01 1.0069088637828827e-01</leafValues></_>
        <_>
          <internalNodes>
            0 -1 55 8.4181292913854122e-04</internalNodes>
          <leafValues>
            1.5230697393417358e-01 -2.7328374981880188e-01</leafValues></_>
        <_>
          <internalNodes>
            0 -1 277 1.0495085269212723e-02</internalNodes>
          <leafValues>
            -1.4328739047050476e-01 2.9844522476196289e-01</leafValues></_>
        <_>
          <internalNodes>
            0 -1 26 1.5176717715803534e-04</internalNodes>
          <leafValues>
            -2.7367785573005676e-01 1.5937034785747528e-01</leafValues></_>
        <_>
          <internalNodes>
            0 -1 161 6.1102549079805613e-04</internalNodes>
          <leafValues>
            -1.3496863842010498e-01 2.9473885893821716e-01</leafValues></_>
        <_>
          <internalNodes>
            0 -1 239 3.4789913333952427e-03</internalNodes>
          <leafValues>
            6.9295570254325867e-02 -5.8893889188766479e-01</leafValues></_>
        <_>
          <internalNodes>
            0 -1 126 -1.6757436096668243e-03</internalNodes>
          <leafValues>
            3.2738265395164490e-01 -1.3603895902633667e-01</leafValues></_>
        <_>
          <internalNodes>
            0 -1 267 -2.6430804282426834e-03</internalNodes>
          <leafValues>
            -5.7130271196365356e-01 7.5825162231922150e-02</leafValues></_>
        <_>
          <internalNodes>
            0 -1 171 -6.2149167060852051e-03</internalNodes>
          <leafValues>
            -3.4809386730194092e-01 1.0861568152904510e-01</leafValues></_>
        <_>
          <internalNodes>
            0 -1 284 -5.0136126810684800e-04</internalNodes>
          <leafValues>
            2.0784924924373627e-01 -2.1278698742389679e-01</leafValues></_>
        <_>
          <internalNodes>
            0 -1 6 3.5408763214945793e-03</internalNodes>
          <leafValues>
            -9.6196457743644714e-02 4.2811846733093262e-01</leafValues></_>
        <_>
          <internalNodes>
            0 -1 24 -7.6279528439044952e-03</internalNodes>
          <leafValues>
            -4.0095219016075134e-01 1.0680463910102844e-01</leafValues></_>
        <_>
          <internalNodes>
            0 -1 65 1.7551273107528687e-02</internalNodes>
          <leafValues>
            1.0710798203945160e-01 -3.5379105806350708e-01</leafValues></_>
        <_>
          <internalNodes>
            0 -1 410 -2.7487607439979911e-04</internalNodes>
          <leafValues>
            2.8364628553390503e-01 -1.2987048923969269e-01</leafValues></_>
        <_>
          <internalNodes>
            0 -1 31 -1.9905525259673595e-03</internalNodes>
          <leafValues>
            -4.2072951793670654e-01 9.7176015377044678e-02</leafValues></_>
        <_>
          <internalNodes>
            0 -1 150 5.5758366361260414e-03</internalNodes>
          <leafValues>
            7.3884241282939911e-02 -4.8579004406929016e-01</leafValues></_>
        <_>
          <internalNodes>
            0 -1 162 5.7609383948147297e-03</internalNodes>
          <leafValues>
            -9.9215596914291382e-02 4.6064323186874390e-01</leafValues></_>
        <_>
          <internalNodes>
            0 -1 146 4.8570699989795685e-02</internalNodes>
          <leafValues>
            -8.8752247393131256e-02 4.3765339255332947e-01</leafValues></_>
        <_>
          <internalNodes>
            0 -1 428 1.3195866486057639e-03</internalNodes>
          <leafValues>
            -1.5955924987792969e-01 2.6227366924285889e-01</leafValues></_>
        <_>
          <internalNodes>
            0 -1 41 3.9059282280504704e-03</internalNodes>
          <leafValues>
            1.0180312395095825e-01 -3.6825424432754517e-01</leafValues></_>
        <_>
          <internalNodes>
            0 -1 23 1.0618809610605240e-02</internalNodes>
          <leafValues>
            -1.2213888019323349e-01 3.1216728687286377e-01</leafValues></_>
        <_>
          <internalNodes>
            0 -1 418 -1.0207764804363251e-02</internalNodes>
          <leafValues>
            1.4497338235378265e-01 -2.6724115014076233e-01</leafValues></_>
        <_>
          <internalNodes>
            0 -1 133 4.5358361676335335e-03</internalNodes>
          <leafValues>
            -1.5481860935688019e-01 2.5394082069396973e-01</leafValues></_>
        <_>
          <internalNodes>
            0 -1 118 -1.0211914195679128e-04</internalNodes>
          <leafValues>
            1.8047343194484711e-01 -2.0329472422599792e-01</leafValues></_>
        <_>
          <internalNodes>
            0 -1 235 4.6028429642319679e-03</internalNodes>
          <leafValues>
            5.9438288211822510e-02 -6.1751991510391235e-01</leafValues></_>
        <_>
          <internalNodes>
            0 -1 400 1.5709861181676388e-03</internalNodes>
          <leafValues>
            5.1501080393791199e-02 -6.3468414545059204e-01</leafValues></_></weakClassifiers></_>
    <!-- stage 9 -->
    <_>
      <maxWeakCount>37</maxWeakCount>
      <stageThreshold>-8.4111279249191284e-01</stageThreshold>
      <weakClassifiers>
        <_>
          <internalNodes>
            0 -1 262 4.9146953970193863e-03</internalNodes>
          <leafValues>
            8.1267215311527252e-02 6.2660259008407593e-01</leafValues></_>
        <_>
          <internalNodes>
            0 -1 218 1.4667812734842300e-02</internalNodes>
          <leafValues>
            -2.3373030126094818e-01 2.9856571555137634e-01</leafValues></_>
        <_>
          <internalNodes>
            0 -1 386 -3.3171395771205425e-03</internalNodes>
          <leafValues>
            3.0366277694702148e-01 -2.0209094882011414e-01</leafValues></_>
        <_>
          <internalNodes>
            0 -1 174 1.2541315518319607e-03</internalNodes>
          <leafValues>
            -2.4923783540725708e-01 2.4127231538295746e-01</leafValues></_>
        <_>
          <internalNodes>
            0 -1 311 1.4978880994021893e-02</internalNodes>
          <leafValues>
            -1.6989943385124207e-01 4.0500301122665405e-01</leafValues></_>
        <_>
          <internalNodes>
            0 -1 265 -1.3884531799703836e-03</internalNodes>
          <leafValues>
            4.6671143174171448e-01 -1.1256775259971619e-01</leafValues></_>
        <_>
          <internalNodes>
            0 -1 256 5.3427978418767452e-03</internalNodes>
          <leafValues>
            -1.2105418741703033e-01 4.6383464336395264e-01</leafValues></_>
        <_>
          <internalNodes>
            0 -1 282 2.1738428622484207e-03</internalNodes>
          <leafValues>
            -2.8133609890937805e-01 1.8204224109649658e-01</leafValues></_>
        <_>
          <internalNodes>
            0 -1 153 2.2915331646800041e-03</internalNodes>
          <leafValues>
            -1.6773600876331329e-01 2.9955914616584778e-01</leafValues></_>
        <_>
          <internalNodes>
            0 -1 328 3.7770206108689308e-03</internalNodes>
          <leafValues>
            -1.8716289103031158e-01 2.4013358354568481e-01</leafValues></_>
        <_>
          <internalNodes>
            0 -1 134 -1.6565293481107801e-04</internalNodes>
          <leafValues>
            1.7770069837570190e-01 -2.5098043680191040e-01</leafValues></_>
        <_>
          <internalNodes>
            0 -1 7 1.5755753964185715e-02</internalNodes>
          <leafValues>
            -2.3055092990398407e-01 1.9333724677562714e-01</leafValues></_>
        <_>
          <internalNodes>
            0 -1 144 6.8885520100593567e-02</internalNodes>
          <leafValues>
            -9.3483686447143555e-02 4.5294964313507080e-01</leafValues></_>
        <_>
          <internalNodes>
            0 -1 358 5.3267681505531073e-04</internalNodes>
          <leafValues>
            -1.4350304007530212e-01 3.0465242266654968e-01</leafValues></_>
        <_>
          <internalNodes>
            0 -1 449 -5.4619559086859226e-03</internalNodes>
          <leafValues>
            4.4204986095428467e-01 -9.5352582633495331e-02</leafValues></_>
        <_>
          <internalNodes>
            0 -1 467 -1.0783874895423651e-03</internalNodes>
          <leafValues>
            2.0352511107921600e-01 -2.2286209464073181e-01</leafValues></_>
        <_>
          <internalNodes>
            0 -1 416 -2.4194128811359406e-02</internalNodes>
          <leafValues>
            5.2087777853012085e-01 -8.0040626227855682e-02</leafValues></_>
        <_>
          <internalNodes>
            0 -1 374 4.2079067789018154e-03</internalNodes>
          <leafValues>
            -1.5250796079635620e-01 2.6490703225135803e-01</leafValues></_>
        <_>
          <internalNodes>
            0 -1 380 2.7719489298760891e-03</internalNodes>
          <leafValues>
            -8.9444547891616821e-02 4.8980385065078735e-01</leafValues></_>
        <_>
          <internalNodes>
            0 -1 249 1.0500790085643530e-04</internalNodes>
          <leafValues>
            -2.8686025738716125e-01 1.4259855449199677e-01</leafValues></_>
        <_>
          <internalNodes>
            0 -1 98 2.9502776451408863e-03</internalNodes>
          <leafValues>
            -8.9025653898715973e-02 5.0681638717651367e-01</leafValues></_>
        <_>
          <internalNodes>
            0 -1 460 1.8126007635146379e-03</internalNodes>
          <leafValues>
            -1.9984869658946991e-01 2.0377913117408752e-01</leafValues></_>
        <_>
          <internalNodes>
            0 -1 325 -1.1978102847933769e-02</internalNodes>
          <leafValues>
            -5.1454758644104004e-01 8.4059208631515503e-02</leafValues></_>
        <_>
          <internalNodes>
            0 -1 185 -3.3557251095771790e-02</internalNodes>
          <leafValues>
            -5.6111031770706177e-01 6.7624837160110474e-02</leafValues></_>
        <_>
          <internalNodes>
            0 -1 126 3.8594128564000130e-03</internalNodes>
          <leafValues>
            -7.5218506157398224e-02 4.9824285507202148e-01</leafValues></_>
        <_>
          <internalNodes>
            0 -1 223 -1.0729516856372356e-02</internalNodes>
          <leafValues>
            -5.0939202308654785e-01 7.5931683182716370e-02</leafValues></_>
        <_>
          <internalNodes>
            0 -1 143 5.9308833442628384e-04</internalNodes>
          <leafValues>
            -1.3481010496616364e-01 2.6975935697555542e-01</leafValues></_>
        <_>
          <internalNodes>
            0 -1 142 4.7119814553298056e-04</internalNodes>
          <leafValues>
            -1.5990093350410461e-01 2.3516279458999634e-01</leafValues></_>
        <_>
          <internalNodes>
            0 -1 251 -7.0789926685392857e-03</internalNodes>
          <leafValues>
            -5.3864282369613647e-01 6.5763585269451141e-02</leafValues></_>
        <_>
          <internalNodes>
            0 -1 69 -1.8666530377231538e-04</internalNodes>
          <leafValues>
            1.9304375350475311e-01 -1.8319390714168549e-01</leafValues></_>
        <_>
          <internalNodes>
            0 -1 140 1.2353125493973494e-03</internalNodes>
          <leafValues>
            7.2514764964580536e-02 -5.3666085004806519e-01</leafValues></_>
        <_>
          <internalNodes>
            0 -1 368 6.7825359292328358e-04</internalNodes>
          <leafValues>
            -1.7259718477725983e-01 2.2580018639564514e-01</leafValues></_>
        <_>
          <internalNodes>
            0 -1 245 -2.4476274847984314e-03</internalNodes>
          <leafValues>
            2.9616814851760864e-01 -1.2693753838539124e-01</leafValues></_>
        <_>
          <internalNodes>
            0 -1 212 1.1351423338055611e-02</internalNodes>
          <leafValues>
            8.2758590579032898e-02 -4.9095538258552551e-01</leafValues></_>
        <_>
          <internalNodes>
            0 -1 164 1.4015439897775650e-02</internalNodes>
          <leafValues>
            7.0078536868095398e-02 -5.3112590312957764e-01</leafValues></_>
        <_>
          <internalNodes>
            0 -1 211 1.0059871710836887e-03</internalNodes>
          <leafValues>
            -1.4888501167297363e-01 2.6660618185997009e-01</leafValues></_>
        <_>
          <internalNodes>
            0 -1 196 2.4991785176098347e-03</internalNodes>
          <leafValues>
            -1.2971459329128265e-01 3.8631090521812439e-01</leafValues></_></weakClassifiers></_>
    <!-- stage 10 -->
    <_>
      <maxWeakCount>43</maxWeakCount>
      <stageThreshold>-8.8699167966842651e-01</stageThreshold>
      <weakClassifiers>
        <_>
          <internalNodes>
            0 -1 326 -1.0392356198281050e-03</internalNodes>
          <leafValues>
            5.4440152645111084e-01 4.7120418399572372e-02</leafValues></_>
        <_>
          <internalNodes>
            0 -1 435 1.5860002487897873e-02</internalNodes>
          <leafValues>
            -1.5835076570510864e-01 4.0600007772445679e-01</leafValues></_>
        <_>
          <internalNodes>
            0 -1 183 1.7147336155176163e-02</internalNodes>
          <leafValues>
            -9.9102027714252472e-02 5.4003375768661499e-01</leafValues></_>
        <_>
          <internalNodes>
            0 -1 291 3.5445708781480789e-03</internalNodes>
          <leafValues>
            -1.3450279831886292e-01 4.4535797834396362e-01</leafValues></_>
        <_>
          <internalNodes>
            0 -1 201 6.5145203843712807e-03</internalNodes>
          <leafValues>
            -1.9763341546058655e-01 2.3614192008972168e-01</leafValues></_>
        <_>
          <internalNodes>
            0 -1 96 -1.0006959928432480e-04</internalNodes>
          <leafValues>
            2.2346764802932739e-01 -2.0216175913810730e-01</leafValues></_>
        <_>
          <internalNodes>
            0 -1 359 1.9176360219717026e-02</internalNodes>
          <leafValues>
            -3.3479109406471252e-01 1.2555392086505890e-01</leafValues></_>
        <_>
          <internalNodes>
            0 -1 138 -1.0998895158991218e-03</internalNodes>
          <leafValues>
            2.3096446692943573e-01 -1.8634183704853058e-01</leafValues></_>
        <_>
          <internalNodes>
            0 -1 409 8.6411589290946722e-04</internalNodes>
          <leafValues>
            -1.1867301911115646e-01 3.2948589324951172e-01</leafValues></_>
        <_>
          <internalNodes>
            0 -1 47 7.5974094215780497e-04</internalNodes>
          <leafValues>
            -1.7146322131156921e-01 2.3434568941593170e-01</leafValues></_>
        <_>
          <internalNodes>
            0 -1 209 1.8223071238026023e-03</internalNodes>
          <leafValues>
            -1.8201488256454468e-01 2.3393309116363525e-01</leafValues></_>
        <_>
          <internalNodes>
            0 -1 271 2.8758179396390915e-03</internalNodes>
          <leafValues>
            -2.2355535626411438e-01 1.8604131042957306e-01</leafValues></_>
        <_>
          <internalNodes>
            0 -1 383 -1.9572030287235975e-03</internalNodes>
          <leafValues>
            -7.4705255031585693e-01 5.8520101010799408e-02</leafValues></_>
        <_>
          <internalNodes>
            0 -1 345 -2.9565305449068546e-03</internalNodes>
          <leafValues>
            3.0956599116325378e-01 -1.2932857871055603e-01</leafValues></_>
        <_>
          <internalNodes>
            0 -1 306 -1.1384903918951750e-03</internalNodes>
          <leafValues>
            2.7068462967872620e-01 -1.6040971875190735e-01</leafValues></_>
        <_>
          <internalNodes>
            0 -1 225 4.2321309447288513e-03</internalNodes>
          <leafValues>
            -7.6218672096729279e-02 5.1801633834838867e-01</leafValues></_>
        <_>
          <internalNodes>
            0 -1 242 -3.4215254709124565e-03</internalNodes>
          <leafValues>
            -4.4042253494262695e-01 9.0258933603763580e-02</leafValues></_>
        <_>
          <internalNodes>
            0 -1 454 -8.9493067935109138e-03</internalNodes>
          <leafValues>
            -6.2851995229721069e-01 5.5275347083806992e-02</leafValues></_>
        <_>
          <internalNodes>
            0 -1 432 -3.0817473307251930e-03</internalNodes>
          <leafValues>
            2.5738799571990967e-01 -1.4777055382728577e-01</leafValues></_>
        <_>
          <internalNodes>
            0 -1 361 4.5636633876711130e-04</internalNodes>
          <leafValues>
            -2.3994578421115875e-01 1.6380485892295837e-01</leafValues></_>
        <_>
          <internalNodes>
            0 -1 86 7.5328093953430653e-03</internalNodes>
          <leafValues>
            6.5898008644580841e-02 -5.3198856115341187e-01</leafValues></_>
        <_>
          <internalNodes>
            0 -1 52 1.6776563134044409e-03</internalNodes>
          <leafValues>
            -9.3950174748897552e-02 4.1169163584709167e-01</leafValues></_>
        <_>
          <internalNodes>
            0 -1 462 -4.2610615491867065e-03</internalNodes>
          <leafValues>
            1.6528786718845367e-01 -2.3764713108539581e-01</leafValues></_>
        <_>
          <internalNodes>
            0 -1 119 1.3998613692820072e-02</internalNodes>
          <leafValues>
            -9.7228817641735077e-02 3.9222469925880432e-01</leafValues></_>
        <_>
          <internalNodes>
            0 -1 43 -1.9035874865949154e-03</internalNodes>
          <leafValues>
            -4.6304470300674438e-01 9.7711436450481415e-02</leafValues></_>
        <_>
          <internalNodes>
            0 -1 486 1.3318671844899654e-03</internalNodes>
          <leafValues>
            -1.3214868307113647e-01 3.0402964353561401e-01</leafValues></_>
        <_>
          <internalNodes>
            0 -1 97 -4.6720700338482857e-03</internalNodes>
          <leafValues>
            -3.7127268314361572e-01 1.0418631136417389e-01</leafValues></_>
        <_>
          <internalNodes>
            0 -1 387 -3.6410253960639238e-04</internalNodes>
          <leafValues>
            2.3664200305938721e-01 -1.6231738030910492e-01</leafValues></_>
        <_>
          <internalNodes>
            0 -1 468 -1.4769935514777899e-03</internalNodes>
          <leafValues>
            4.0159147977828979e-01 -7.8638657927513123e-02</leafValues></_>
        <_>
          <internalNodes>
            0 -1 441 2.2138431668281555e-03</internalNodes>
          <leafValues>
            -1.7460116744041443e-01 2.7960017323493958e-01</leafValues></_>
        <_>
          <internalNodes>
            0 -1 356 -1.3671349734067917e-04</internalNodes>
          <leafValues>
            -2.7873489260673523e-01 1.3816653192043304e-01</leafValues></_>
        <_>
          <internalNodes>
            0 -1 151 6.4959330484271049e-03</internalNodes>
          <leafValues>
            -1.4257627725601196e-01 2.4940609931945801e-01</leafValues></_>
        <_>
          <internalNodes>
            0 -1 120 6.6878050565719604e-02</internalNodes>
          <leafValues>
            -7.2159826755523682e-02 5.1814156770706177e-01</leafValues></_>
        <_>
          <internalNodes>
            0 -1 149 6.6957261878997087e-04</internalNodes>
          <leafValues>
            -1.3160157203674316e-01 2.7596092224121094e-01</leafValues></_>
        <_>
          <internalNodes>
            0 -1 478 2.1137052681297064e-03</internalNodes>
          <leafValues>
            5.0325848162174225e-02 -7.1216046810150146e-01</leafValues></_>
        <_>
          <internalNodes>
            0 -1 128 2.4007419124245644e-03</internalNodes>
          <leafValues>
            4.2768299579620361e-02 -7.1778571605682373e-01</leafValues></_>
        <_>
          <internalNodes>
            0 -1 313 -3.4592318115755916e-04</internalNodes>
          <leafValues>
            2.0507971942424774e-01 -1.6777005791664124e-01</leafValues></_>
        <_>
          <internalNodes>
            0 -1 197 -1.1539645493030548e-02</internalNodes>
          <leafValues>
            -3.9726001024246216e-01 8.9005202054977417e-02</leafValues></_>
        <_>
          <internalNodes>
            0 -1 213 3.2708302605897188e-03</internalNodes>
          <leafValues>
            7.8987225890159607e-02 -4.7418412566184998e-01</leafValues></_>
        <_>
          <internalNodes>
            0 -1 257 1.8861312419176102e-03</internalNodes>
          <leafValues>
            -1.2897321581840515e-01 3.0331170558929443e-01</leafValues></_>
        <_>
          <internalNodes>
            0 -1 305 3.7799146957695484e-03</internalNodes>
          <leafValues>
            -1.1342538893222809e-01 3.2301050424575806e-01</leafValues></_>
        <_>
          <internalNodes>
            0 -1 327 3.5925261909142137e-04</internalNodes>
          <leafValues>
            -1.6927018761634827e-01 2.3102423548698425e-01</leafValues></_>
        <_>
          <internalNodes>
            0 -1 216 -1.8246381077915430e-03</internalNodes>
          <leafValues>
            -3.0468040704727173e-01 1.2294002622365952e-01</leafValues></_></weakClassifiers></_>
    <!-- stage 11 -->
    <_>
      <maxWeakCount>45</maxWeakCount>
      <stageThreshold>-8.8233178853988647e-01</stageThreshold>
      <weakClassifiers>
        <_>
          <internalNodes>
            0 -1 371 2.0516742952167988e-03</internalNodes>
          <leafValues>
            1.5564202331006527e-02 5.2870815992355347e-01</leafValues></_>
        <_>
          <internalNodes>
            0 -1 116 1.0883782804012299e-01</internalNodes>
          <leafValues>
            -2.4186050891876221e-01 2.7011021971702576e-01</leafValues></_>
        <_>
          <internalNodes>
            0 -1 288 3.5337533336132765e-04</internalNodes>
          <leafValues>
            -2.6564648747444153e-01 2.3885154724121094e-01</leafValues></_>
        <_>
          <internalNodes>
            0 -1 17 8.7164499564096332e-04</internalNodes>
          <leafValues>
            -2.8661954402923584e-01 1.7901703715324402e-01</leafValues></_>
        <_>
          <internalNodes>
            0 -1 353 1.6629964113235474e-02</internalNodes>
          <leafValues>
            -1.1855670064687729e-01 4.0964731574058533e-01</leafValues></_>
        <_>
          <internalNodes>
            0 -1 419 1.6141775995492935e-02</internalNodes>
          <leafValues>
            -1.6622075438499451e-01 3.7902656197547913e-01</leafValues></_>
        <_>
          <internalNodes>
            0 -1 29 -1.4172749361023307e-03</internalNodes>
          <leafValues>
            2.4036738276481628e-01 -1.9695404171943665e-01</leafValues></_>
        <_>
          <internalNodes>
            0 -1 125 -1.7082861158996820e-03</internalNodes>
          <leafValues>
            2.3324856162071228e-01 -1.9643695652484894e-01</leafValues></_>
        <_>
          <internalNodes>
            0 -1 488 -6.6655565751716495e-04</internalNodes>
          <leafValues>
            2.0122374594211578e-01 -1.8809525668621063e-01</leafValues></_>
        <_>
          <internalNodes>
            0 -1 335 -8.1655792891979218e-03</internalNodes>
          <leafValues>
            3.9722460508346558e-01 -9.5644824206829071e-02</leafValues></_>
        <_>
          <internalNodes>
            0 -1 3 6.4794514328241348e-03</internalNodes>
          <leafValues>
            -2.9619094729423523e-01 1.3677884638309479e-01</leafValues></_>
        <_>
          <internalNodes>
            0 -1 155 -7.3353949119336903e-05</internalNodes>
          <leafValues>
            1.7374311387538910e-01 -2.1579706668853760e-01</leafValues></_>
        <_>
          <internalNodes>
            0 -1 214 1.3552023097872734e-02</internalNodes>
          <leafValues>
            5.5049575865268707e-02 -5.9928631782531738e-01</leafValues></_>
        <_>
          <internalNodes>
            0 -1 148 -3.2102420926094055e-02</internalNodes>
          <leafValues>
            -6.4830231666564941e-01 5.0459112972021103e-02</leafValues></_>
        <_>
          <internalNodes>
            0 -1 430 2.8348215855658054e-03</internalNodes>
          <leafValues>
            5.9787001460790634e-02 -5.5451029539108276e-01</leafValues></_>
        <_>
          <internalNodes>
            0 -1 124 1.4518337557092309e-03</internalNodes>
          <leafValues>
            -1.0914454609155655e-01 3.3238786458969116e-01</leafValues></_>
        <_>
          <internalNodes>
            0 -1 131 -1.8339440226554871e-02</internalNodes>
          <leafValues>
            -5.1319473981857300e-01 7.7195130288600922e-02</leafValues></_>
        <_>
          <internalNodes>
            0 -1 364 -4.7194171929731965e-04</internalNodes>
          <leafValues>
            1.6798658668994904e-01 -2.0294617116451263e-01</leafValues></_>
        <_>
          <internalNodes>
            0 -1 292 5.8117490261793137e-03</internalNodes>
          <leafValues>
            -6.3195146620273590e-02 5.7177627086639404e-01</leafValues></_>
        <_>
          <internalNodes>
            0 -1 404 -3.1417128629982471e-03</internalNodes>
          <leafValues>
            3.4432750940322876e-01 -1.0338788479566574e-01</leafValues></_>
        <_>
          <internalNodes>
            0 -1 221 -3.7799417041242123e-03</internalNodes>
          <leafValues>
            4.9304518103599548e-01 -6.9605767726898193e-02</leafValues></_>
        <_>
          <internalNodes>
            0 -1 280 5.9418072924017906e-03</internalNodes>
          <leafValues>
            -6.0351863503456116e-02 6.0120791196823120e-01</leafValues></_>
        <_>
          <internalNodes>
            0 -1 406 1.4634379185736179e-03</internalNodes>
          <leafValues>
            6.8188548088073730e-02 -6.0172808170318604e-01</leafValues></_>
        <_>
          <internalNodes>
            0 -1 112 -2.1462218463420868e-01</internalNodes>
          <leafValues>
            6.8887609243392944e-01 -5.6344844400882721e-02</leafValues></_>
        <_>
          <internalNodes>
            0 -1 48 8.7796691805124283e-03</internalNodes>
          <leafValues>
            -1.1406264454126358e-01 3.3272981643676758e-01</leafValues></_>
        <_>
          <internalNodes>
            0 -1 71 2.2476017475128174e-03</internalNodes>
          <leafValues>
            -1.0443075746297836e-01 3.5724148154258728e-01</leafValues></_>
        <_>
          <internalNodes>
            0 -1 439 1.1544624343514442e-02</internalNodes>
          <leafValues>
            -1.0665378719568253e-01 3.3109200000762939e-01</leafValues></_>
        <_>
          <internalNodes>
            0 -1 296 -2.7050492353737354e-03</internalNodes>
          <leafValues>
            -3.6141398549079895e-01 1.0119050741195679e-01</leafValues></_>
        <_>
          <internalNodes>
            0 -1 398 2.2400063462555408e-03</internalNodes>
          <leafValues>
            -1.3676972687244415e-01 2.7970123291015625e-01</leafValues></_>
        <_>
          <internalNodes>
            0 -1 63 6.7957267165184021e-02</internalNodes>
          <leafValues>
            7.6452523469924927e-02 -5.0281596183776855e-01</leafValues></_>
        <_>
          <internalNodes>
            0 -1 320 -2.6355066802352667e-03</internalNodes>
          <leafValues>
            -3.4952148795127869e-01 1.0506238043308258e-01</leafValues></_>
        <_>
          <internalNodes>
            0 -1 323 3.4898668527603149e-03</internalNodes>
          <leafValues>
            -8.3823747932910919e-02 5.0839412212371826e-01</leafValues></_>
        <_>
          <internalNodes>
            0 -1 340 -2.8403961914591491e-04</internalNodes>
          <leafValues>
            2.4864225089550018e-01 -1.6307604312896729e-01</leafValues></_>
        <_>
          <internalNodes>
            0 -1 189 1.4317320659756660e-02</internalNodes>
          <leafValues>
            8.6632996797561646e-02 -4.4556590914726257e-01</leafValues></_>
        <_>
          <internalNodes>
            0 -1 408 2.6019602082669735e-03</internalNodes>
          <leafValues>
            -1.7672134935855865e-01 2.1428668498992920e-01</leafValues></_>
        <_>
          <internalNodes>
            0 -1 54 -3.5970059689134359e-03</internalNodes>
          <leafValues>
            -5.6748169660568237e-01 6.5764896571636200e-02</leafValues></_>
        <_>
          <internalNodes>
            0 -1 472 -4.3885190971195698e-03</internalNodes>
          <leafValues>
            -3.6609584093093872e-01 1.0050590336322784e-01</leafValues></_>
        <_>
          <internalNodes>
            0 -1 469 6.6552609205245972e-03</internalNodes>
          <leafValues>
            1.2807513773441315e-01 -3.1632012128829956e-01</leafValues></_>
        <_>
          <internalNodes>
            0 -1 480 -3.9161409949883819e-04</internalNodes>
          <leafValues>
            2.0117861032485962e-01 -1.7893922328948975e-01</leafValues></_>
        <_>
          <internalNodes>
            0 -1 429 4.5506553724408150e-03</internalNodes>
          <leafValues>
            -8.1990562379360199e-02 4.0893459320068359e-01</leafValues></_>
        <_>
          <internalNodes>
            0 -1 160 2.7323864400386810e-02</internalNodes>
          <leafValues>
            4.9832653254270554e-02 -7.5331866741180420e-01</leafValues></_>
        <_>
          <internalNodes>
            0 -1 20 -1.9381578313186765e-03</internalNodes>
          <leafValues>
            2.0293565094470978e-01 -1.7647787928581238e-01</leafValues></_>
        <_>
          <internalNodes>
            0 -1 177 -8.0098274338524789e-05</internalNodes>
          <leafValues>
            1.6852948069572449e-01 -2.2534288465976715e-01</leafValues></_>
        <_>
          <internalNodes>
            0 -1 215 -2.9194275848567486e-03</internalNodes>
          <leafValues>
            3.5816958546638489e-01 -9.7025074064731598e-02</leafValues></_>
        <_>
          <internalNodes>
            0 -1 135 1.4913391787558794e-03</internalNodes>
          <leafValues>
            1.1478640884160995e-01 -3.2073977589607239e-01</leafValues></_></weakClassifiers></_>
    <!-- stage 12 -->
    <_>
      <maxWeakCount>46</maxWeakCount>
      <stageThreshold>-8.4101307392120361e-01</stageThreshold>
      <weakClassifiers>
        <_>
          <internalNodes>
            0 -1 261 3.2541421242058277e-03</internalNodes>
          <leafValues>
            1.4154048264026642e-01 5.8001691102981567e-01</leafValues></_>
        <_>
          <internalNodes>
            0 -1 57 9.6985474228858948e-02</internalNodes>
          <leafValues>
            -2.4661892652511597e-01 2.2352199256420135e-01</leafValues></_>
        <_>
          <internalNodes>
            0 -1 286 -9.5973098650574684e-03</internalNodes>
          <leafValues>
            5.7187825441360474e-01 -8.8137336075305939e-02</leafValues></_>
        <_>
          <internalNodes>
            0 -1 188 8.6644506081938744e-03</internalNodes>
          <leafValues>
            -1.7542082071304321e-01 4.1711303591728210e-01</leafValues></_>
        <_>
          <internalNodes>
            0 -1 172 1.2419192120432854e-02</internalNodes>
          <leafValues>
            8.1085428595542908e-02 -6.4103454351425171e-01</leafValues></_>
        <_>
          <internalNodes>
            0 -1 78 1.8274047179147601e-03</internalNodes>
          <leafValues>
            -1.9040660560131073e-01 2.0020313560962677e-01</leafValues></_>
        <_>
          <internalNodes>
            0 -1 331 2.9512746259570122e-03</internalNodes>
          <leafValues>
            -1.3840004801750183e-01 2.9014196991920471e-01</leafValues></_>
        <_>
          <internalNodes>
            0 -1 139 1.7872097669169307e-03</internalNodes>
          <leafValues>
            -1.2686254084110260e-01 3.4557214379310608e-01</leafValues></_>
        <_>
          <internalNodes>
            0 -1 229 -2.2004046477377415e-03</internalNodes>
          <leafValues>
            2.7025240659713745e-01 -1.4062778651714325e-01</leafValues></_>
        <_>
          <internalNodes>
            0 -1 173 -1.1474899947643280e-03</internalNodes>
          <leafValues>
            -3.3492237329483032e-01 1.3202014565467834e-01</leafValues></_>
        <_>
          <internalNodes>
            0 -1 165 -5.6639714166522026e-03</internalNodes>
          <leafValues>
            -5.8872282505035400e-01 7.6059371232986450e-02</leafValues></_>
        <_>
          <internalNodes>
            0 -1 83 -1.0398942977190018e-03</internalNodes>
          <leafValues>
            2.9455113410949707e-01 -1.3210861384868622e-01</leafValues></_>
        <_>
          <internalNodes>
            0 -1 466 3.5642422735691071e-03</internalNodes>
          <leafValues>
            6.9499619305133820e-02 -5.4049897193908691e-01</leafValues></_>
        <_>
          <internalNodes>
            0 -1 74 -7.0609111571684480e-04</internalNodes>
          <leafValues>
            -2.5395384430885315e-01 1.4455540478229523e-01</leafValues></_>
        <_>
          <internalNodes>
            0 -1 259 6.8870279937982559e-03</internalNodes>
          <leafValues>
            8.0897867679595947e-02 -4.2289352416992188e-01</leafValues></_>
        <_>
          <internalNodes>
            0 -1 237 -2.4109017103910446e-03</internalNodes>
          <leafValues>
            -4.9668079614639282e-01 7.7177889645099640e-02</leafValues></_>
        <_>
          <internalNodes>
            0 -1 474 2.0158048719167709e-03</internalNodes>
          <leafValues>
            -1.0161887854337692e-01 3.8806474208831787e-01</leafValues></_>
        <_>
          <internalNodes>
            0 -1 427 -6.1029288917779922e-03</internalNodes>
          <leafValues>
            3.2736891508102417e-01 -1.2234974652528763e-01</leafValues></_>
        <_>
          <internalNodes>
            0 -1 46 2.8951512649655342e-04</internalNodes>
          <leafValues>
            -1.6970993578433990e-01 2.0864927768707275e-01</leafValues></_>
        <_>
          <internalNodes>
            0 -1 473 -1.0326986666768789e-03</internalNodes>
          <leafValues>
            -3.5001087188720703e-01 9.1329641640186310e-02</leafValues></_>
        <_>
          <internalNodes>
            0 -1 366 1.6685837879776955e-02</internalNodes>
          <leafValues>
            5.1326613873243332e-02 -6.1787730455398560e-01</leafValues></_>
        <_>
          <internalNodes>
            0 -1 89 -1.9302524160593748e-03</internalNodes>
          <leafValues>
            2.6186689734458923e-01 -1.3688698410987854e-01</leafValues></_>
        <_>
          <internalNodes>
            0 -1 413 3.6843339330516756e-05</internalNodes>
          <leafValues>
            -2.0501466095447540e-01 1.7293752729892731e-01</leafValues></_>
        <_>
          <internalNodes>
            0 -1 79 1.4233775436878204e-03</internalNodes>
          <leafValues>
            5.7620681822299957e-02 -5.5964499711990356e-01</leafValues></_>
        <_>
          <internalNodes>
            0 -1 60 1.8487641355022788e-03</internalNodes>
          <leafValues>
            4.4202841818332672e-02 -6.5570473670959473e-01</leafValues></_>
        <_>
          <internalNodes>
            0 -1 346 -3.7683541886508465e-03</internalNodes>
          <leafValues>
            3.1494393944740295e-01 -1.0506541281938553e-01</leafValues></_>
        <_>
          <internalNodes>
            0 -1 329 1.2003296054899693e-02</internalNodes>
          <leafValues>
            -9.7870595753192902e-02 4.7128400206565857e-01</leafValues></_>
        <_>
          <internalNodes>
            0 -1 22 -2.0264595746994019e-02</internalNodes>
          <leafValues>
            -4.3784543871879578e-01 7.9442717134952545e-02</leafValues></_>
        <_>
          <internalNodes>
            0 -1 4 1.7485247924923897e-02</internalNodes>
          <leafValues>
            -1.0774639248847961e-01 3.1468817591667175e-01</leafValues></_>
        <_>
          <internalNodes>
            0 -1 444 3.9401156827807426e-03</internalNodes>
          <leafValues>
            -1.3195277750492096e-01 2.9812559485435486e-01</leafValues></_>
        <_>
          <internalNodes>
            0 -1 269 5.7156188413500786e-03</internalNodes>
          <leafValues>
            6.4788460731506348e-02 -5.3610062599182129e-01</leafValues></_>
        <_>
          <internalNodes>
            0 -1 336 1.1485159397125244e-02</internalNodes>
          <leafValues>
            -8.0263584852218628e-02 4.2606374621391296e-01</leafValues></_>
        <_>
          <internalNodes>
            0 -1 123 1.4676922932267189e-02</internalNodes>
          <leafValues>
            -1.4206080138683319e-01 2.4299065768718719e-01</leafValues></_>
        <_>
          <internalNodes>
            0 -1 100 2.1457260299939662e-04</internalNodes>
          <leafValues>
            -1.4789661765098572e-01 2.6494070887565613e-01</leafValues></_>
        <_>
          <internalNodes>
            0 -1 399 5.3930748254060745e-03</internalNodes>
          <leafValues>
            -2.0606835186481476e-01 1.6581222414970398e-01</leafValues></_>
        <_>
          <internalNodes>
            0 -1 62 2.7568027377128601e-02</internalNodes>
          <leafValues>
            6.7562498152256012e-02 -5.4087078571319580e-01</leafValues></_>
        <_>
          <internalNodes>
            0 -1 77 3.8347139488905668e-03</internalNodes>
          <leafValues>
            6.1357274651527405e-02 -5.8117151260375977e-01</leafValues></_>
        <_>
          <internalNodes>
            0 -1 344 2.0020297961309552e-04</internalNodes>
          <leafValues>
            1.5393115580081940e-01 -2.3399299383163452e-01</leafValues></_>
        <_>
          <internalNodes>
            0 -1 121 -4.7181751579046249e-03</internalNodes>
          <leafValues>
            -7.2053581476211548e-01 4.6906877309083939e-02</leafValues></_>
        <_>
          <internalNodes>
            0 -1 45 2.2988082841038704e-02</internalNodes>
          <leafValues>
            -2.7009341120719910e-01 1.2487944215536118e-01</leafValues></_>
        <_>
          <internalNodes>
            0 -1 422 1.9628352019935846e-03</internalNodes>
          <leafValues>
            4.7799147665500641e-02 -6.8276375532150269e-01</leafValues></_>
        <_>
          <internalNodes>
            0 -1 448 -1.6283310949802399e-02</internalNodes>
          <leafValues>
            4.6996787190437317e-01 -7.6243706047534943e-02</leafValues></_>
        <_>
          <internalNodes>
            0 -1 424 -1.4183525927364826e-03</internalNodes>
          <leafValues>
            -5.7056373357772827e-01 6.7810982465744019e-02</leafValues></_>
        <_>
          <internalNodes>
            0 -1 308 1.1841529048979282e-03</internalNodes>
          <leafValues>
            -1.1821330338716507e-01 2.9053407907485962e-01</leafValues></_>
        <_>
          <internalNodes>
            0 -1 80 3.0477777123451233e-02</internalNodes>
          <leafValues>
            8.4155917167663574e-02 -4.1860109567642212e-01</leafValues></_>
        <_>
          <internalNodes>
            0 -1 99 2.8045644285157323e-04</internalNodes>
          <leafValues>
            -1.3347686827182770e-01 2.7545228600502014e-01</leafValues></_></weakClassifiers></_>
    <!-- stage 13 -->
    <_>
      <maxWeakCount>42</maxWeakCount>
      <stageThreshold>-8.2245939970016479e-01</stageThreshold>
      <weakClassifiers>
        <_>
          <internalNodes>
            0 -1 207 7.5090676546096802e-03</internalNodes>
          <leafValues>
            -2.0656136795878410e-02 4.8854553699493408e-01</leafValues></_>
        <_>
          <internalNodes>
            0 -1 341 -4.4822865165770054e-03</internalNodes>
          <leafValues>
            4.0618985891342163e-01 -1.5231864154338837e-01</leafValues></_>
        <_>
          <internalNodes>
            0 -1 436 3.3978097140789032e-02</internalNodes>
          <leafValues>
            -1.4926923811435699e-01 3.6310049891471863e-01</leafValues></_>
        <_>
          <internalNodes>
            0 -1 396 -2.1324263885617256e-02</internalNodes>
          <leafValues>
            4.8147287964820862e-01 -1.5429972112178802e-01</leafValues></_>
        <_>
          <internalNodes>
            0 -1 417 -8.2795191556215286e-03</internalNodes>
          <leafValues>
            2.5671219825744629e-01 -2.0402896404266357e-01</leafValues></_>
        <_>
          <internalNodes>
            0 -1 21 2.5267805904150009e-03</internalNodes>
          <leafValues>
            -3.0186504125595093e-01 1.4424987137317657e-01</leafValues></_>
        <_>
          <internalNodes>
            0 -1 403 1.4007266145199537e-03</internalNodes>
          <leafValues>
            5.3504936397075653e-02 -6.6182374954223633e-01</leafValues></_>
        <_>
          <internalNodes>
            0 -1 202 2.9817591421306133e-03</internalNodes>
          <leafValues>
            -1.4586991071701050e-01 3.0823943018913269e-01</leafValues></_>
        <_>
          <internalNodes>
            0 -1 93 4.3313694186508656e-03</internalNodes>
          <leafValues>
            -8.9208729565143585e-02 5.0069802999496460e-01</leafValues></_>
        <_>
          <internalNodes>
            0 -1 130 2.6971767656505108e-03</internalNodes>
          <leafValues>
            -1.8924061954021454e-01 2.0445510745048523e-01</leafValues></_>
        <_>
          <internalNodes>
            0 -1 147 1.2315433472394943e-02</internalNodes>
          <leafValues>
            -8.4838069975376129e-02 4.5476055145263672e-01</leafValues></_>
        <_>
          <internalNodes>
            0 -1 59 -1.9590336829423904e-02</internalNodes>
          <leafValues>
            3.8999587297439575e-01 -9.7210124135017395e-02</leafValues></_>
        <_>
          <internalNodes>
            0 -1 338 -3.0053127557039261e-03</internalNodes>
          <leafValues>
            -4.0546900033950806e-01 1.0074994713068008e-01</leafValues></_>
        <_>
          <internalNodes>
            0 -1 304 8.2523401943035424e-05</internalNodes>
          <leafValues>
            -2.2274215519428253e-01 1.7829102277755737e-01</leafValues></_>
        <_>
          <internalNodes>
            0 -1 238 -1.4983307337388396e-03</internalNodes>
          <leafValues>
            -3.7463858723640442e-01 1.0389626771211624e-01</leafValues></_>
        <_>
          <internalNodes>
            0 -1 434 -1.0450824629515409e-03</internalNodes>
          <leafValues>
            2.2066383063793182e-01 -1.8121126294136047e-01</leafValues></_>
        <_>
          <internalNodes>
            0 -1 384 1.5743526164442301e-03</internalNodes>
          <leafValues>
            -1.3690845668315887e-01 3.0605369806289673e-01</leafValues></_>
        <_>
          <internalNodes>
            0 -1 407 -1.3770458754152060e-03</internalNodes>
          <leafValues>
            3.4142449498176575e-01 -1.1506738513708115e-01</leafValues></_>
        <_>
          <internalNodes>
            0 -1 136 -1.2314681662246585e-03</internalNodes>
          <leafValues>
            -2.6560565829277039e-01 1.4602543413639069e-01</leafValues></_>
        <_>
          <internalNodes>
            0 -1 76 3.2610888592898846e-03</internalNodes>
          <leafValues>
            9.4530254602432251e-02 -4.1858851909637451e-01</leafValues></_>
        <_>
          <internalNodes>
            0 -1 114 -5.7581515284255147e-04</internalNodes>
          <leafValues>
            2.4884746968746185e-01 -1.6160739958286285e-01</leafValues></_>
        <_>
          <internalNodes>
            0 -1 421 -2.2406527772545815e-02</internalNodes>
          <leafValues>
            -3.7537470459938049e-01 9.6293434500694275e-02</leafValues></_>
        <_>
          <internalNodes>
            0 -1 274 -8.3577516488730907e-04</internalNodes>
          <leafValues>
            -4.2218226194381714e-01 8.6694672703742981e-02</leafValues></_>
        <_>
          <internalNodes>
            0 -1 395 3.3004444558173418e-03</internalNodes>
          <leafValues>
            5.1797006279230118e-02 -7.0173048973083496e-01</leafValues></_>
        <_>
          <internalNodes>
            0 -1 190 -8.0850636586546898e-03</internalNodes>
          <leafValues>
            -5.6147313117980957e-01 5.8761991560459137e-02</leafValues></_>
        <_>
          <internalNodes>
            0 -1 289 -1.1017557233572006e-02</internalNodes>
          <leafValues>
            6.0763734579086304e-01 -6.7265830934047699e-02</leafValues></_>
        <_>
          <internalNodes>
            0 -1 415 2.4214992299675941e-03</internalNodes>
          <leafValues>
            -6.7895978689193726e-02 4.8276874423027039e-01</leafValues></_>
        <_>
          <internalNodes>
            0 -1 241 -1.8729821313172579e-03</internalNodes>
          <leafValues>
            -7.4010801315307617e-01 5.5346030741930008e-02</leafValues></_>
        <_>
          <internalNodes>
            0 -1 482 -2.6283250190317631e-04</internalNodes>
          <leafValues>
            1.8552328646183014e-01 -1.9779226183891296e-01</leafValues></_>
        <_>
          <internalNodes>
            0 -1 73 -9.8783709108829498e-04</internalNodes>
          <leafValues>
            3.1959804892539978e-01 -1.1350396275520325e-01</leafValues></_>
        <_>
          <internalNodes>
            0 -1 272 -8.1555359065532684e-04</internalNodes>
          <leafValues>
            2.2910089790821075e-01 -1.6216342151165009e-01</leafValues></_>
        <_>
          <internalNodes>
            0 -1 37 -1.4370472636073828e-03</internalNodes>
          <leafValues>
            -7.8271901607513428e-01 4.7904275357723236e-02</leafValues></_>
        <_>
          <internalNodes>
            0 -1 248 8.5603247862309217e-04</internalNodes>
          <leafValues>
            -2.6172459125518799e-01 1.3460986316204071e-01</leafValues></_>
        <_>
          <internalNodes>
            0 -1 310 -1.1325357627356425e-04</internalNodes>
          <leafValues>
            1.6294860839843750e-01 -2.1778978407382965e-01</leafValues></_>
        <_>
          <internalNodes>
            0 -1 38 -2.1602611988782883e-02</internalNodes>
          <leafValues>
            -2.7817547321319580e-01 1.2940376996994019e-01</leafValues></_>
        <_>
          <internalNodes>
            0 -1 362 -5.6156108621507883e-04</internalNodes>
          <leafValues>
            -3.1945666670799255e-01 1.1185009777545929e-01</leafValues></_>
        <_>
          <internalNodes>
            0 -1 357 -2.5696594093460590e-05</internalNodes>
          <leafValues>
            -1.8606309592723846e-01 2.1294519305229187e-01</leafValues></_>
        <_>
          <internalNodes>
            0 -1 302 -1.0819431394338608e-02</internalNodes>
          <leafValues>
            -3.6088261008262634e-01 1.1498754471540451e-01</leafValues></_>
        <_>
          <internalNodes>
            0 -1 295 -1.5075630508363247e-03</internalNodes>
          <leafValues>
            -3.7193396687507629e-01 1.0230689495801926e-01</leafValues></_>
        <_>
          <internalNodes>
            0 -1 490 5.5864232126623392e-04</internalNodes>
          <leafValues>
            -8.6100570857524872e-02 4.0471220016479492e-01</leafValues></_>
        <_>
          <internalNodes>
            0 -1 354 -4.2307032272219658e-03</internalNodes>
          <leafValues>
            -5.1967751979827881e-01 6.7844532430171967e-02</leafValues></_>
        <_>
          <internalNodes>
            0 -1 453 -2.0382218062877655e-02</internalNodes>
          <leafValues>
            -5.2990508079528809e-01 6.3667789101600647e-02</leafValues></_></weakClassifiers></_>
    <!-- stage 14 -->
    <_>
      <maxWeakCount>43</maxWeakCount>
      <stageThreshold>-7.6915478706359863e-01</stageThreshold>
      <weakClassifiers>
        <_>
          <internalNodes>
            0 -1 307 -1.3754813000559807e-02</internalNodes>
          <leafValues>
            7.1468925476074219e-01 1.9779115915298462e-01</leafValues></_>
        <_>
          <internalNodes>
            0 -1 30 -3.2419613562524319e-03</internalNodes>
          <leafValues>
            3.0439132452011108e-01 -1.5380562841892242e-01</leafValues></_>
        <_>
          <internalNodes>
            0 -1 240 -6.9230180233716965e-03</internalNodes>
          <leafValues>
            1.4567439258098602e-01 -3.0223709344863892e-01</leafValues></_>
        <_>
          <internalNodes>
            0 -1 376 -1.4008114812895656e-03</internalNodes>
          <leafValues>
            4.2467528581619263e-01 -1.1450621485710144e-01</leafValues></_>
        <_>
          <internalNodes>
            0 -1 443 2.2179951891303062e-02</internalNodes>
          <leafValues>
            -6.7640036344528198e-02 5.6482303142547607e-01</leafValues></_>
        <_>
          <internalNodes>
            0 -1 294 2.2181845270097256e-04</internalNodes>
          <leafValues>
            -1.8690390884876251e-01 2.6701200008392334e-01</leafValues></_>
        <_>
          <internalNodes>
            0 -1 339 -1.2295802589505911e-03</internalNodes>
          <leafValues>
            3.5326075553894043e-01 -1.0426352918148041e-01</leafValues></_>
        <_>
          <internalNodes>
            0 -1 32 1.2256652116775513e-03</internalNodes>
          <leafValues>
            -1.5283431112766266e-01 2.6813781261444092e-01</leafValues></_>
        <_>
          <internalNodes>
            0 -1 297 -6.4264321699738503e-03</internalNodes>
          <leafValues>
            -4.7817236185073853e-01 9.1287195682525635e-02</leafValues></_>
        <_>
          <internalNodes>
            0 -1 113 -2.2059842012822628e-03</internalNodes>
          <leafValues>
            3.4293499588966370e-01 -9.7408272325992584e-02</leafValues></_>
        <_>
